<?xml version="1.0" encoding="UTF-8" standalone="yes"?>
<PMML xmlns="http://www.dmg.org/PMML-4_4" xmlns:data="http://jpmml.org/jpmml-model/InlineTable" version="4.4">
	<Header>
		<Application name="JPMML-R" version="1.4.4"/>
		<Timestamp>2021-11-01T21:53:45Z</Timestamp>
	</Header>
	<DataDictionary>
		<DataField name="_target" optype="categorical" dataType="integer">
			<Value value="0"/>
			<Value value="1"/>
		</DataField>
		<DataField name="PC1" optype="continuous" dataType="float"/>
		<DataField name="PC2" optype="continuous" dataType="float"/>
		<DataField name="PC3" optype="continuous" dataType="float"/>
		<DataField name="PC4" optype="continuous" dataType="float"/>
		<DataField name="PC5" optype="continuous" dataType="float"/>
		<DataField name="PC6" optype="continuous" dataType="float"/>
		<DataField name="PC7" optype="continuous" dataType="float"/>
		<DataField name="PC8" optype="continuous" dataType="float"/>
		<DataField name="PC9" optype="continuous" dataType="float"/>
		<DataField name="PC10" optype="continuous" dataType="float"/>
		<DataField name="AgeAtTest" optype="continuous" dataType="float"/>
		<DataField name="KeyPopulationTypeGP" optype="continuous" dataType="float"/>
		<DataField name="KeyPopulationTypeSW" optype="continuous" dataType="float"/>
		<DataField name="KeyPopulationTypeMSM" optype="continuous" dataType="float"/>
		<DataField name="MaritalStatusDivorced" optype="continuous" dataType="float"/>
		<DataField name="MaritalStatusPolygamous" optype="continuous" dataType="float"/>
		<DataField name="MaritalStatusWidowed" optype="continuous" dataType="float"/>
		<DataField name="MaritalStatusMinor" optype="continuous" dataType="float"/>
		<DataField name="GenderFemale" optype="continuous" dataType="float"/>
		<DataField name="PatientDisabledDisabled" optype="continuous" dataType="float"/>
		<DataField name="EverTestedForHIVNo" optype="continuous" dataType="float"/>
		<DataField name="MonthsSinceLastTest" optype="continuous" dataType="float"/>
		<DataField name="ClientTestedAsCouple" optype="continuous" dataType="float"/>
		<DataField name="EntryPointOPD" optype="continuous" dataType="float"/>
		<DataField name="EntryPointMTC" optype="continuous" dataType="float"/>
		<DataField name="EntryPointIPD" optype="continuous" dataType="float"/>
		<DataField name="EntryPointMOBILE" optype="continuous" dataType="float"/>
		<DataField name="EntryPointOther" optype="continuous" dataType="float"/>
		<DataField name="EntryPointHB" optype="continuous" dataType="float"/>
		<DataField name="EntryPointPEDS" optype="continuous" dataType="float"/>
		<DataField name="TestingStrategyHB" optype="continuous" dataType="float"/>
		<DataField name="TestingStrategyMOBILE" optype="continuous" dataType="float"/>
		<DataField name="TestingStrategyHP" optype="continuous" dataType="float"/>
		<DataField name="TestingStrategyNP" optype="continuous" dataType="float"/>
		<DataField name="TBScreeningPresumed TB" optype="continuous" dataType="float"/>
		<DataField name="ClientSelfTestedYes" optype="continuous" dataType="float"/>
		<DataField name="month_of_test12" optype="continuous" dataType="float"/>
		<DataField name="month_of_test3" optype="continuous" dataType="float"/>
		<DataField name="month_of_test4" optype="continuous" dataType="float"/>
		<DataField name="month_of_test11" optype="continuous" dataType="float"/>
		<DataField name="month_of_test6" optype="continuous" dataType="float"/>
		<DataField name="month_of_test2" optype="continuous" dataType="float"/>
		<DataField name="month_of_test1" optype="continuous" dataType="float"/>
		<DataField name="month_of_test5" optype="continuous" dataType="float"/>
		<DataField name="month_of_test9" optype="continuous" dataType="float"/>
		<DataField name="month_of_test7" optype="continuous" dataType="float"/>
		<DataField name="month_of_test8" optype="continuous" dataType="float"/>
		<DataField name="dayofweek5" optype="continuous" dataType="float"/>
		<DataField name="dayofweek2" optype="continuous" dataType="float"/>
		<DataField name="dayofweek3" optype="continuous" dataType="float"/>
		<DataField name="dayofweek7" optype="continuous" dataType="float"/>
		<DataField name="dayofweek4" optype="continuous" dataType="float"/>
		<DataField name="dayofweek1" optype="continuous" dataType="float"/>
	</DataDictionary>
	<MiningModel functionName="classification" algorithmName="XGBoost (GBTree)" x-mathContext="float">
		<MiningSchema>
			<MiningField name="_target" usageType="target"/>
			<MiningField name="PC1"/>
			<MiningField name="PC2"/>
			<MiningField name="PC3"/>
			<MiningField name="PC4"/>
			<MiningField name="PC5"/>
			<MiningField name="PC6"/>
			<MiningField name="PC7"/>
			<MiningField name="PC8"/>
			<MiningField name="PC9"/>
			<MiningField name="PC10"/>
			<MiningField name="AgeAtTest"/>
			<MiningField name="KeyPopulationTypeGP"/>
			<MiningField name="KeyPopulationTypeSW"/>
			<MiningField name="KeyPopulationTypeMSM"/>
			<MiningField name="MaritalStatusDivorced"/>
			<MiningField name="MaritalStatusPolygamous"/>
			<MiningField name="MaritalStatusWidowed"/>
			<MiningField name="MaritalStatusMinor"/>
			<MiningField name="GenderFemale"/>
			<MiningField name="PatientDisabledDisabled"/>
			<MiningField name="EverTestedForHIVNo"/>
			<MiningField name="MonthsSinceLastTest"/>
			<MiningField name="ClientTestedAsCouple"/>
			<MiningField name="EntryPointOPD"/>
			<MiningField name="EntryPointMTC"/>
			<MiningField name="EntryPointIPD"/>
			<MiningField name="EntryPointMOBILE"/>
			<MiningField name="EntryPointOther"/>
			<MiningField name="EntryPointHB"/>
			<MiningField name="EntryPointPEDS"/>
			<MiningField name="TestingStrategyHB"/>
			<MiningField name="TestingStrategyMOBILE"/>
			<MiningField name="TestingStrategyHP"/>
			<MiningField name="TestingStrategyNP"/>
			<MiningField name="TBScreeningPresumed TB"/>
			<MiningField name="ClientSelfTestedYes"/>
			<MiningField name="month_of_test12"/>
			<MiningField name="month_of_test3"/>
			<MiningField name="month_of_test4"/>
			<MiningField name="month_of_test11"/>
			<MiningField name="month_of_test6"/>
			<MiningField name="month_of_test2"/>
			<MiningField name="month_of_test1"/>
			<MiningField name="month_of_test5"/>
			<MiningField name="month_of_test9"/>
			<MiningField name="month_of_test7"/>
			<MiningField name="month_of_test8"/>
			<MiningField name="dayofweek5"/>
			<MiningField name="dayofweek2"/>
			<MiningField name="dayofweek3"/>
			<MiningField name="dayofweek7"/>
			<MiningField name="dayofweek4"/>
			<MiningField name="dayofweek1"/>
		</MiningSchema>
		<Segmentation multipleModelMethod="modelChain" missingPredictionTreatment="returnMissing">
			<Segment id="1">
				<True/>
				<MiningModel functionName="regression" x-mathContext="float">
					<MiningSchema>
						<MiningField name="PC1"/>
						<MiningField name="PC2"/>
						<MiningField name="PC3"/>
						<MiningField name="PC4"/>
						<MiningField name="PC5"/>
						<MiningField name="PC6"/>
						<MiningField name="PC7"/>
						<MiningField name="PC8"/>
						<MiningField name="PC9"/>
						<MiningField name="PC10"/>
						<MiningField name="AgeAtTest"/>
						<MiningField name="KeyPopulationTypeGP"/>
						<MiningField name="KeyPopulationTypeSW"/>
						<MiningField name="KeyPopulationTypeMSM"/>
						<MiningField name="MaritalStatusDivorced"/>
						<MiningField name="MaritalStatusPolygamous"/>
						<MiningField name="MaritalStatusWidowed"/>
						<MiningField name="MaritalStatusMinor"/>
						<MiningField name="GenderFemale"/>
						<MiningField name="PatientDisabledDisabled"/>
						<MiningField name="EverTestedForHIVNo"/>
						<MiningField name="MonthsSinceLastTest"/>
						<MiningField name="ClientTestedAsCouple"/>
						<MiningField name="EntryPointOPD"/>
						<MiningField name="EntryPointMTC"/>
						<MiningField name="EntryPointIPD"/>
						<MiningField name="EntryPointMOBILE"/>
						<MiningField name="EntryPointOther"/>
						<MiningField name="EntryPointHB"/>
						<MiningField name="EntryPointPEDS"/>
						<MiningField name="TestingStrategyHB"/>
						<MiningField name="TestingStrategyMOBILE"/>
						<MiningField name="TestingStrategyHP"/>
						<MiningField name="TestingStrategyNP"/>
						<MiningField name="TBScreeningPresumed TB"/>
						<MiningField name="ClientSelfTestedYes"/>
						<MiningField name="month_of_test12"/>
						<MiningField name="month_of_test3"/>
						<MiningField name="month_of_test4"/>
						<MiningField name="month_of_test11"/>
						<MiningField name="month_of_test6"/>
						<MiningField name="month_of_test2"/>
						<MiningField name="month_of_test1"/>
						<MiningField name="month_of_test5"/>
						<MiningField name="month_of_test9"/>
						<MiningField name="month_of_test7"/>
						<MiningField name="month_of_test8"/>
						<MiningField name="dayofweek5"/>
						<MiningField name="dayofweek2"/>
						<MiningField name="dayofweek3"/>
						<MiningField name="dayofweek7"/>
						<MiningField name="dayofweek4"/>
						<MiningField name="dayofweek1"/>
					</MiningSchema>
					<Output>
						<OutputField name="xgbValue" optype="continuous" dataType="float" isFinalResult="false"/>
					</Output>
					<Segmentation multipleModelMethod="sum">
						<Segment id="1">
							<True/>
							<TreeModel functionName="regression" noTrueChildStrategy="returnLastPrediction" x-mathContext="float">
								<MiningSchema>
									<MiningField name="PC3"/>
									<MiningField name="PC4"/>
									<MiningField name="PC5"/>
									<MiningField name="PC6"/>
									<MiningField name="PC7"/>
									<MiningField name="PC10"/>
									<MiningField name="AgeAtTest"/>
									<MiningField name="MaritalStatusDivorced"/>
									<MiningField name="MaritalStatusWidowed"/>
									<MiningField name="MaritalStatusMinor"/>
									<MiningField name="GenderFemale"/>
									<MiningField name="MonthsSinceLastTest"/>
									<MiningField name="EntryPointMTC"/>
									<MiningField name="TestingStrategyHB"/>
									<MiningField name="TestingStrategyMOBILE"/>
									<MiningField name="TestingStrategyHP"/>
									<MiningField name="TBScreeningPresumed TB"/>
									<MiningField name="month_of_test3"/>
									<MiningField name="month_of_test5"/>
									<MiningField name="dayofweek2"/>
								</MiningSchema>
								<Node score="-0.45882356">
									<True/>
									<Node score="-0.51418686">
										<SimplePredicate field="TestingStrategyHB" operator="lessThan" value="2.000001"/>
										<Node score="-0.0">
											<SimplePredicate field="MaritalStatusDivorced" operator="greaterOrEqual" value="0.5"/>
											<Node score="0.06666667">
												<SimplePredicate field="EntryPointMTC" operator="lessThan" value="0.5"/>
												<Node score="-0.38823533">
													<SimplePredicate field="PC5" operator="greaterOrEqual" value="0.59795344"/>
													<Node score="0.16363637">
														<SimplePredicate field="AgeAtTest" operator="greaterOrEqual" value="37.5"/>
													</Node>
													<Node score="-0.05454546">
														<SimplePredicate field="PC10" operator="greaterOrEqual" value="0.028343268"/>
													</Node>
												</Node>
												<Node score="0.17142859">
													<SimplePredicate field="TBScreeningPresumed TB" operator="lessThan" value="0.5"/>
													<Node score="-0.3">
														<SimplePredicate field="TestingStrategyHP" operator="lessThan" value="0.5"/>
													</Node>
												</Node>
												<Node score="0.41538465">
													<SimplePredicate field="PC6" operator="greaterOrEqual" value="0.20739317"/>
												</Node>
											</Node>
											<Node score="0.45000002">
												<SimplePredicate field="PC7" operator="greaterOrEqual" value="-0.9232638"/>
											</Node>
										</Node>
										<Node score="-0.54519236">
											<SimplePredicate field="TBScreeningPresumed TB" operator="greaterOrEqual" value="0.5"/>
											<Node score="-0.41538465">
												<SimplePredicate field="TestingStrategyMOBILE" operator="lessThan" value="0.5"/>
												<Node score="-0.46415097">
													<SimplePredicate field="AgeAtTest" operator="greaterOrEqual" value="53.5"/>
													<Node score="-0.05454546">
														<SimplePredicate field="PC7" operator="greaterOrEqual" value="1.1565199"/>
													</Node>
												</Node>
												<Node score="-0.06486487">
													<SimplePredicate field="AgeAtTest" operator="greaterOrEqual" value="19.5"/>
												</Node>
											</Node>
											<Node score="0.20000002">
												<SimplePredicate field="MonthsSinceLastTest" operator="greaterOrEqual" value="13.5"/>
												<Node score="-0.15">
													<SimplePredicate field="AgeAtTest" operator="greaterOrEqual" value="41.0"/>
												</Node>
											</Node>
											<Node score="-0.0">
												<SimplePredicate field="MaritalStatusWidowed" operator="lessThan" value="0.5"/>
											</Node>
										</Node>
										<Node score="-0.5505762">
											<SimplePredicate field="TestingStrategyHB" operator="lessThan" value="0.5"/>
											<Node score="-0.5514034">
												<SimplePredicate field="MaritalStatusMinor" operator="lessThan" value="0.5"/>
												<Node score="-0.4337478">
													<SimplePredicate field="MonthsSinceLastTest" operator="greaterOrEqual" value="5.5"/>
												</Node>
											</Node>
											<Node score="-0.5845303">
												<SimplePredicate field="MonthsSinceLastTest" operator="lessThan" value="12.5"/>
											</Node>
										</Node>
										<Node score="-0.23720932">
											<SimplePredicate field="month_of_test3" operator="greaterOrEqual" value="0.5"/>
											<Node score="0.13333334">
												<SimplePredicate field="PC3" operator="greaterOrEqual" value="0.82558966"/>
											</Node>
										</Node>
										<Node score="-0.36760566">
											<SimplePredicate field="PC4" operator="greaterOrEqual" value="1.169303"/>
										</Node>
									</Node>
									<Node score="-0.5419355">
										<SimplePredicate field="PC6" operator="greaterOrEqual" value="1.1282129"/>
										<Node score="0.5368421">
											<SimplePredicate field="TBScreeningPresumed TB" operator="greaterOrEqual" value="0.5"/>
											<Node score="-0.0">
												<SimplePredicate field="month_of_test5" operator="greaterOrEqual" value="0.5"/>
											</Node>
										</Node>
										<Node score="-0.13928571">
											<SimplePredicate field="AgeAtTest" operator="greaterOrEqual" value="18.5"/>
											<Node score="-0.084162906">
												<SimplePredicate field="PC7" operator="greaterOrEqual" value="-0.20721194"/>
												<Node score="0.13846155">
													<SimplePredicate field="GenderFemale" operator="greaterOrEqual" value="0.5"/>
												</Node>
											</Node>
											<Node score="-0.5052632">
												<SimplePredicate field="MonthsSinceLastTest" operator="lessThan" value="6.5"/>
											</Node>
										</Node>
										<Node score="-0.06666667">
											<SimplePredicate field="MonthsSinceLastTest" operator="greaterOrEqual" value="10.5"/>
										</Node>
										<Node score="-0.2888889">
											<SimplePredicate field="AgeAtTest" operator="greaterOrEqual" value="12.5"/>
										</Node>
									</Node>
									<Node score="-0.37324417">
										<SimplePredicate field="PC3" operator="greaterOrEqual" value="-5.1969643"/>
										<Node score="0.21081083">
											<SimplePredicate field="PC7" operator="greaterOrEqual" value="2.7801332"/>
											<Node score="-0.0">
												<SimplePredicate field="EntryPointMTC" operator="lessThan" value="0.5"/>
												<Node score="-0.22105263">
													<SimplePredicate field="AgeAtTest" operator="greaterOrEqual" value="21.0"/>
												</Node>
											</Node>
											<Node score="-0.33333337">
												<SimplePredicate field="AgeAtTest" operator="greaterOrEqual" value="58.5"/>
											</Node>
										</Node>
										<Node score="0.23478262">
											<SimplePredicate field="MaritalStatusWidowed" operator="greaterOrEqual" value="0.5"/>
											<Node score="-0.26666668">
												<SimplePredicate field="PC3" operator="greaterOrEqual" value="1.9037715"/>
											</Node>
										</Node>
										<Node score="-0.4987698">
											<SimplePredicate field="PC6" operator="greaterOrEqual" value="-1.2405262"/>
										</Node>
									</Node>
									<Node score="0.40000004">
										<SimplePredicate field="TBScreeningPresumed TB" operator="greaterOrEqual" value="0.5"/>
									</Node>
									<Node score="0.26666668">
										<SimplePredicate field="dayofweek2" operator="greaterOrEqual" value="0.5"/>
										<Node score="-0.05454546">
											<SimplePredicate field="AgeAtTest" operator="greaterOrEqual" value="33.0"/>
										</Node>
									</Node>
									<Node score="-0.14157304">
										<SimplePredicate field="AgeAtTest" operator="greaterOrEqual" value="19.5"/>
									</Node>
								</Node>
							</TreeModel>
						</Segment>
						<Segment id="2">
							<True/>
							<TreeModel functionName="regression" noTrueChildStrategy="returnLastPrediction" x-mathContext="float">
								<MiningSchema>
									<MiningField name="PC2"/>
									<MiningField name="PC4"/>
									<MiningField name="PC5"/>
									<MiningField name="PC6"/>
									<MiningField name="PC7"/>
									<MiningField name="PC8"/>
									<MiningField name="PC10"/>
									<MiningField name="AgeAtTest"/>
									<MiningField name="MaritalStatusDivorced"/>
									<MiningField name="MaritalStatusPolygamous"/>
									<MiningField name="MaritalStatusMinor"/>
									<MiningField name="GenderFemale"/>
									<MiningField name="EverTestedForHIVNo"/>
									<MiningField name="MonthsSinceLastTest"/>
									<MiningField name="EntryPointMTC"/>
									<MiningField name="EntryPointMOBILE"/>
									<MiningField name="TestingStrategyHB"/>
									<MiningField name="TBScreeningPresumed TB"/>
									<MiningField name="month_of_test3"/>
									<MiningField name="month_of_test5"/>
									<MiningField name="month_of_test7"/>
								</MiningSchema>
								<Node score="-0.20164">
									<True/>
									<Node score="-0.36764097">
										<SimplePredicate field="TestingStrategyHB" operator="lessThan" value="2.000001"/>
										<Node score="-0.0">
											<SimplePredicate field="MaritalStatusDivorced" operator="greaterOrEqual" value="0.5"/>
											<Node score="-0.24832153">
												<SimplePredicate field="EntryPointMTC" operator="lessThan" value="0.5"/>
												<Node score="-0.29634964">
													<SimplePredicate field="PC5" operator="greaterOrEqual" value="0.59795344"/>
													<Node score="0.13303041">
														<SimplePredicate field="AgeAtTest" operator="greaterOrEqual" value="37.5"/>
													</Node>
													<Node score="-0.044155728">
														<SimplePredicate field="PC10" operator="greaterOrEqual" value="0.028343268"/>
													</Node>
												</Node>
												<Node score="-0.01651514">
													<SimplePredicate field="AgeAtTest" operator="greaterOrEqual" value="22.5"/>
													<Node score="0.28877938">
														<SimplePredicate field="GenderFemale" operator="greaterOrEqual" value="0.5"/>
													</Node>
												</Node>
											</Node>
											<Node score="0.36378396">
												<SimplePredicate field="PC7" operator="greaterOrEqual" value="-0.9232638"/>
											</Node>
										</Node>
										<Node score="-0.23733887">
											<SimplePredicate field="TBScreeningPresumed TB" operator="greaterOrEqual" value="0.5"/>
											<Node score="-0.20874111">
												<SimplePredicate field="MonthsSinceLastTest" operator="greaterOrEqual" value="13.5"/>
												<Node score="-0.2771423">
													<SimplePredicate field="AgeAtTest" operator="greaterOrEqual" value="61.0"/>
													<Node score="-0.041297533">
														<SimplePredicate field="MonthsSinceLastTest" operator="lessThan" value="26.0"/>
													</Node>
												</Node>
												<Node score="0.24984328">
													<SimplePredicate field="AgeAtTest" operator="greaterOrEqual" value="21.5"/>
												</Node>
											</Node>
											<Node score="-0.4166201">
												<SimplePredicate field="EntryPointMOBILE" operator="greaterOrEqual" value="0.5"/>
												<Node score="0.013380869">
													<SimplePredicate field="MaritalStatusMinor" operator="lessThan" value="0.5"/>
												</Node>
											</Node>
											<Node score="0.20465964">
												<SimplePredicate field="month_of_test5" operator="greaterOrEqual" value="0.5"/>
											</Node>
										</Node>
										<Node score="-0.41984072">
											<SimplePredicate field="TestingStrategyHB" operator="lessThan" value="0.5"/>
											<Node score="-0.42068347">
												<SimplePredicate field="MaritalStatusMinor" operator="lessThan" value="0.5"/>
												<Node score="-0.32107234">
													<SimplePredicate field="MonthsSinceLastTest" operator="greaterOrEqual" value="5.5"/>
												</Node>
											</Node>
											<Node score="-0.4504166">
												<SimplePredicate field="MonthsSinceLastTest" operator="lessThan" value="12.5"/>
											</Node>
										</Node>
										<Node score="0.17558107">
											<SimplePredicate field="month_of_test3" operator="greaterOrEqual" value="0.5"/>
											<Node score="-0.17299914">
												<SimplePredicate field="PC4" operator="greaterOrEqual" value="-0.32564896"/>
											</Node>
										</Node>
										<Node score="-0.021148743">
											<SimplePredicate field="MaritalStatusPolygamous" operator="greaterOrEqual" value="0.5"/>
										</Node>
									</Node>
									<Node score="-0.4210197">
										<SimplePredicate field="PC6" operator="greaterOrEqual" value="1.1282129"/>
										<Node score="0.43633303">
											<SimplePredicate field="TBScreeningPresumed TB" operator="greaterOrEqual" value="0.5"/>
											<Node score="-0.0">
												<SimplePredicate field="month_of_test5" operator="greaterOrEqual" value="0.5"/>
											</Node>
											<Node score="0.11708539">
												<SimplePredicate field="month_of_test7" operator="greaterOrEqual" value="0.5"/>
											</Node>
										</Node>
										<Node score="-0.3995818">
											<SimplePredicate field="AgeAtTest" operator="greaterOrEqual" value="18.5"/>
											<Node score="-0.039695367">
												<SimplePredicate field="PC7" operator="greaterOrEqual" value="-0.6897136"/>
												<Node score="0.20356427">
													<SimplePredicate field="MaritalStatusDivorced" operator="lessThan" value="2.000001"/>
												</Node>
											</Node>
										</Node>
										<Node score="-0.055593953">
											<SimplePredicate field="MonthsSinceLastTest" operator="greaterOrEqual" value="10.5"/>
										</Node>
										<Node score="-0.2194171">
											<SimplePredicate field="AgeAtTest" operator="greaterOrEqual" value="12.5"/>
										</Node>
									</Node>
									<Node score="0.015287171">
										<SimplePredicate field="TBScreeningPresumed TB" operator="greaterOrEqual" value="0.5"/>
										<Node score="0.4235519">
											<SimplePredicate field="PC8" operator="greaterOrEqual" value="-0.56333923"/>
										</Node>
									</Node>
									<Node score="-0.47562853">
										<SimplePredicate field="PC8" operator="greaterOrEqual" value="0.5227505"/>
										<Node score="-0.366969">
											<SimplePredicate field="AgeAtTest" operator="greaterOrEqual" value="15.5"/>
											<Node score="-0.022211641">
												<SimplePredicate field="EverTestedForHIVNo" operator="greaterOrEqual" value="0.5"/>
											</Node>
										</Node>
									</Node>
									<Node score="-0.43534213">
										<SimplePredicate field="PC2" operator="greaterOrEqual" value="3.0922453"/>
										<Node score="-0.001474871">
											<SimplePredicate field="AgeAtTest" operator="greaterOrEqual" value="46.5"/>
										</Node>
									</Node>
									<Node score="0.22102647">
										<SimplePredicate field="MaritalStatusDivorced" operator="greaterOrEqual" value="0.5"/>
									</Node>
								</Node>
							</TreeModel>
						</Segment>
						<Segment id="3">
							<True/>
							<TreeModel functionName="regression" noTrueChildStrategy="returnLastPrediction" x-mathContext="float">
								<MiningSchema>
									<MiningField name="PC2"/>
									<MiningField name="PC3"/>
									<MiningField name="PC4"/>
									<MiningField name="PC5"/>
									<MiningField name="PC6"/>
									<MiningField name="PC7"/>
									<MiningField name="PC8"/>
									<MiningField name="PC9"/>
									<MiningField name="PC10"/>
									<MiningField name="AgeAtTest"/>
									<MiningField name="MaritalStatusDivorced"/>
									<MiningField name="MaritalStatusMinor"/>
									<MiningField name="GenderFemale"/>
									<MiningField name="PatientDisabledDisabled"/>
									<MiningField name="MonthsSinceLastTest"/>
									<MiningField name="EntryPointMOBILE"/>
									<MiningField name="EntryPointOther"/>
									<MiningField name="TestingStrategyHB"/>
									<MiningField name="TestingStrategyMOBILE"/>
									<MiningField name="TestingStrategyHP"/>
									<MiningField name="TBScreeningPresumed TB"/>
									<MiningField name="month_of_test5"/>
									<MiningField name="month_of_test8"/>
								</MiningSchema>
								<Node score="-0.27845132">
									<True/>
									<Node score="-0.19799867">
										<SimplePredicate field="TestingStrategyHB" operator="lessThan" value="0.5"/>
										<Node score="0.26266712">
											<SimplePredicate field="MaritalStatusDivorced" operator="greaterOrEqual" value="0.5"/>
											<Node score="-0.15561895">
												<SimplePredicate field="PC7" operator="greaterOrEqual" value="0.70744246"/>
												<Node score="0.3143541">
													<SimplePredicate field="MonthsSinceLastTest" operator="lessThan" value="7.5"/>
												</Node>
												<Node score="-0.056799736">
													<SimplePredicate field="GenderFemale" operator="greaterOrEqual" value="0.5"/>
													<Node score="0.20441367">
														<SimplePredicate field="AgeAtTest" operator="greaterOrEqual" value="21.5"/>
													</Node>
												</Node>
											</Node>
											<Node score="-0.3741422">
												<SimplePredicate field="PC2" operator="greaterOrEqual" value="-1.5952522"/>
												<Node score="-0.11393365">
													<SimplePredicate field="MonthsSinceLastTest" operator="lessThan" value="24.0"/>
												</Node>
											</Node>
											<Node score="-0.15454786">
												<SimplePredicate field="TestingStrategyHP" operator="lessThan" value="0.5"/>
												<Node score="0.26304126">
													<SimplePredicate field="AgeAtTest" operator="greaterOrEqual" value="40.0"/>
												</Node>
											</Node>
										</Node>
										<Node score="-0.3488244">
											<SimplePredicate field="TBScreeningPresumed TB" operator="greaterOrEqual" value="0.5"/>
											<Node score="0.10415282">
												<SimplePredicate field="TestingStrategyMOBILE" operator="lessThan" value="0.5"/>
												<Node score="-0.389078">
													<SimplePredicate field="PC3" operator="greaterOrEqual" value="0.8203607"/>
													<Node score="0.036707744">
														<SimplePredicate field="AgeAtTest" operator="greaterOrEqual" value="19.5"/>
													</Node>
												</Node>
												<Node score="-0.31562972">
													<SimplePredicate field="PC9" operator="greaterOrEqual" value="-0.8682943"/>
												</Node>
											</Node>
											<Node score="0.08172132">
												<SimplePredicate field="MonthsSinceLastTest" operator="greaterOrEqual" value="13.5"/>
												<Node score="-0.08565571">
													<SimplePredicate field="AgeAtTest" operator="greaterOrEqual" value="39.5"/>
												</Node>
											</Node>
											<Node score="0.010709479">
												<SimplePredicate field="MaritalStatusMinor" operator="lessThan" value="0.5"/>
											</Node>
										</Node>
										<Node score="-0.36488923">
											<SimplePredicate field="MaritalStatusMinor" operator="lessThan" value="0.5"/>
											<Node score="-0.1752294">
												<SimplePredicate field="AgeAtTest" operator="greaterOrEqual" value="27.5"/>
												<Node score="-0.31686267">
													<SimplePredicate field="PC6" operator="greaterOrEqual" value="-0.5098854"/>
												</Node>
											</Node>
											<Node score="0.014316109">
												<SimplePredicate field="MonthsSinceLastTest" operator="greaterOrEqual" value="25.0"/>
											</Node>
										</Node>
										<Node score="-0.32813367">
											<SimplePredicate field="MonthsSinceLastTest" operator="lessThan" value="12.5"/>
											<Node score="-0.39012167">
												<SimplePredicate field="PC8" operator="greaterOrEqual" value="-1.2225231"/>
											</Node>
										</Node>
										<Node score="-0.35902902">
											<SimplePredicate field="TestingStrategyMOBILE" operator="lessThan" value="0.5"/>
										</Node>
									</Node>
									<Node score="-0.39448652">
										<SimplePredicate field="EntryPointMOBILE" operator="greaterOrEqual" value="0.5"/>
										<Node score="0.3747465">
											<SimplePredicate field="AgeAtTest" operator="greaterOrEqual" value="18.5"/>
											<Node score="-0.1639206">
												<SimplePredicate field="TBScreeningPresumed TB" operator="lessThan" value="0.5"/>
												<Node score="0.101137936">
													<SimplePredicate field="GenderFemale" operator="greaterOrEqual" value="0.5"/>
													<Node score="-0.14870639">
														<SimplePredicate field="PC4" operator="greaterOrEqual" value="-0.17274167"/>
													</Node>
												</Node>
												<Node score="0.06965673">
													<SimplePredicate field="AgeAtTest" operator="greaterOrEqual" value="36.5"/>
												</Node>
											</Node>
											<Node score="-0.0">
												<SimplePredicate field="month_of_test5" operator="greaterOrEqual" value="0.5"/>
											</Node>
										</Node>
										<Node score="-0.10807525">
											<SimplePredicate field="MaritalStatusMinor" operator="lessThan" value="0.5"/>
										</Node>
									</Node>
									<Node score="-0.38764748">
										<SimplePredicate field="TBScreeningPresumed TB" operator="lessThan" value="0.5"/>
										<Node score="0.4071675">
											<SimplePredicate field="MaritalStatusMinor" operator="lessThan" value="0.5"/>
											<Node score="-0.30208996">
												<SimplePredicate field="PatientDisabledDisabled" operator="greaterOrEqual" value="0.5"/>
												<Node score="-0.051754132">
													<SimplePredicate field="EntryPointOther" operator="greaterOrEqual" value="0.5"/>
												</Node>
											</Node>
											<Node score="-0.01487864">
												<SimplePredicate field="PC8" operator="greaterOrEqual" value="-0.15323749"/>
											</Node>
										</Node>
										<Node score="0.39934704">
											<SimplePredicate field="AgeAtTest" operator="greaterOrEqual" value="58.5"/>
											<Node score="-0.18361789">
												<SimplePredicate field="MonthsSinceLastTest" operator="lessThan" value="15.5"/>
											</Node>
										</Node>
										<Node score="-0.3124755">
											<SimplePredicate field="GenderFemale" operator="greaterOrEqual" value="0.5"/>
										</Node>
									</Node>
									<Node score="0.14976765">
										<SimplePredicate field="PC7" operator="greaterOrEqual" value="-0.69650245"/>
										<Node score="0.3477718">
											<SimplePredicate field="AgeAtTest" operator="greaterOrEqual" value="23.5"/>
											<Node score="-0.054898284">
												<SimplePredicate field="PC5" operator="greaterOrEqual" value="-0.09334515"/>
											</Node>
										</Node>
										<Node score="-0.28422263">
											<SimplePredicate field="PC10" operator="greaterOrEqual" value="-0.17641869"/>
										</Node>
									</Node>
									<Node score="-0.1854609">
										<SimplePredicate field="month_of_test8" operator="greaterOrEqual" value="0.5"/>
										<Node score="0.30717468">
											<SimplePredicate field="GenderFemale" operator="greaterOrEqual" value="0.5"/>
										</Node>
									</Node>
									<Node score="0.09439058">
										<SimplePredicate field="month_of_test5" operator="greaterOrEqual" value="0.5"/>
									</Node>
								</Node>
							</TreeModel>
						</Segment>
						<Segment id="4">
							<True/>
							<TreeModel functionName="regression" noTrueChildStrategy="returnLastPrediction" x-mathContext="float">
								<MiningSchema>
									<MiningField name="PC1"/>
									<MiningField name="PC2"/>
									<MiningField name="PC3"/>
									<MiningField name="PC4"/>
									<MiningField name="PC5"/>
									<MiningField name="PC6"/>
									<MiningField name="PC7"/>
									<MiningField name="PC8"/>
									<MiningField name="PC9"/>
									<MiningField name="PC10"/>
									<MiningField name="AgeAtTest"/>
									<MiningField name="MaritalStatusDivorced"/>
									<MiningField name="MaritalStatusMinor"/>
									<MiningField name="GenderFemale"/>
									<MiningField name="EverTestedForHIVNo"/>
									<MiningField name="MonthsSinceLastTest"/>
									<MiningField name="EntryPointHB"/>
									<MiningField name="TestingStrategyHB"/>
									<MiningField name="TBScreeningPresumed TB"/>
									<MiningField name="ClientSelfTestedYes"/>
									<MiningField name="month_of_test4"/>
									<MiningField name="month_of_test5"/>
									<MiningField name="month_of_test7"/>
									<MiningField name="dayofweek5"/>
									<MiningField name="dayofweek3"/>
								</MiningSchema>
								<Node score="-0.27556452">
									<True/>
									<Node score="-0.31833547">
										<SimplePredicate field="TestingStrategyHB" operator="lessThan" value="0.5"/>
										<Node score="-0.27268454">
											<SimplePredicate field="MaritalStatusMinor" operator="lessThan" value="0.5"/>
											<Node score="-0.13855709">
												<SimplePredicate field="AgeAtTest" operator="greaterOrEqual" value="24.5"/>
												<Node score="0.46195492">
													<SimplePredicate field="MonthsSinceLastTest" operator="greaterOrEqual" value="6.5"/>
													<Node score="-0.1927862">
														<SimplePredicate field="PC3" operator="greaterOrEqual" value="-4.482308"/>
														<Node score="0.072340496">
															<SimplePredicate field="PC1" operator="greaterOrEqual" value="6.983368"/>
														</Node>
													</Node>
												</Node>
												<Node score="-0.27122027">
													<SimplePredicate field="MaritalStatusDivorced" operator="lessThan" value="0.5"/>
													<Node score="-0.02499491">
														<SimplePredicate field="TBScreeningPresumed TB" operator="greaterOrEqual" value="0.5"/>
													</Node>
												</Node>
												<Node score="0.13621883">
													<SimplePredicate field="PC7" operator="greaterOrEqual" value="-0.7732718"/>
												</Node>
											</Node>
											<Node score="-0.09411114">
												<SimplePredicate field="PC10" operator="greaterOrEqual" value="1.284145"/>
												<Node score="-0.32065612">
													<SimplePredicate field="AgeAtTest" operator="greaterOrEqual" value="15.5"/>
													<Node score="0.14232422">
														<SimplePredicate field="dayofweek3" operator="greaterOrEqual" value="0.5"/>
													</Node>
												</Node>
												<Node score="0.41681507">
													<SimplePredicate field="PC1" operator="greaterOrEqual" value="-5.0907817"/>
												</Node>
											</Node>
											<Node score="-0.35464326">
												<SimplePredicate field="PC8" operator="greaterOrEqual" value="-1.1363277"/>
												<Node score="-0.29608843">
													<SimplePredicate field="TBScreeningPresumed TB" operator="lessThan" value="2.000001"/>
												</Node>
											</Node>
											<Node score="0.6208877">
												<SimplePredicate field="PC2" operator="greaterOrEqual" value="-0.3159624"/>
											</Node>
										</Node>
										<Node score="-0.29947507">
											<SimplePredicate field="TBScreeningPresumed TB" operator="lessThan" value="0.5"/>
											<Node score="-0.15505533">
												<SimplePredicate field="MonthsSinceLastTest" operator="greaterOrEqual" value="12.5"/>
												<Node score="0.0420866">
													<SimplePredicate field="PC3" operator="greaterOrEqual" value="-2.3330526"/>
													<Node score="-0.3244328">
														<SimplePredicate field="MonthsSinceLastTest" operator="lessThan" value="66.0"/>
													</Node>
												</Node>
												<Node score="0.26607576">
													<SimplePredicate field="AgeAtTest" operator="greaterOrEqual" value="25.5"/>
												</Node>
											</Node>
											<Node score="-0.35483998">
												<SimplePredicate field="PC8" operator="greaterOrEqual" value="-1.2225231"/>
												<Node score="-0.07170769">
													<SimplePredicate field="EntryPointHB" operator="greaterOrEqual" value="0.5"/>
												</Node>
											</Node>
											<Node score="0.87391883">
												<SimplePredicate field="month_of_test4" operator="greaterOrEqual" value="0.5"/>
											</Node>
										</Node>
										<Node score="-0.34036696">
											<SimplePredicate field="PC5" operator="greaterOrEqual" value="-3.1558878"/>
											<Node score="0.05539834">
												<SimplePredicate field="MonthsSinceLastTest" operator="greaterOrEqual" value="12.5"/>
												<Node score="-0.24690545">
													<SimplePredicate field="month_of_test5" operator="greaterOrEqual" value="0.5"/>
												</Node>
											</Node>
											<Node score="-0.27703097">
												<SimplePredicate field="PC7" operator="greaterOrEqual" value="-0.9490981"/>
											</Node>
										</Node>
										<Node score="1.0154246">
											<SimplePredicate field="PC1" operator="greaterOrEqual" value="-6.654002"/>
										</Node>
										<Node score="-0.09430393">
											<SimplePredicate field="dayofweek5" operator="greaterOrEqual" value="0.5"/>
										</Node>
									</Node>
									<Node score="-0.35291967">
										<SimplePredicate field="PC6" operator="greaterOrEqual" value="1.1282129"/>
										<Node score="-0.16692159">
											<SimplePredicate field="AgeAtTest" operator="greaterOrEqual" value="16.5"/>
											<Node score="0.34957168">
												<SimplePredicate field="TBScreeningPresumed TB" operator="greaterOrEqual" value="0.5"/>
												<Node score="-0.0">
													<SimplePredicate field="month_of_test5" operator="greaterOrEqual" value="0.5"/>
												</Node>
												<Node score="0.061754633">
													<SimplePredicate field="month_of_test7" operator="greaterOrEqual" value="0.5"/>
												</Node>
											</Node>
											<Node score="-0.039707445">
												<SimplePredicate field="PC7" operator="greaterOrEqual" value="-0.20721194"/>
												<Node score="0.13569723">
													<SimplePredicate field="AgeAtTest" operator="greaterOrEqual" value="32.5"/>
												</Node>
											</Node>
											<Node score="0.32732135">
												<SimplePredicate field="ClientSelfTestedYes" operator="greaterOrEqual" value="0.5"/>
											</Node>
										</Node>
										<Node score="0.04111562">
											<SimplePredicate field="dayofweek3" operator="greaterOrEqual" value="0.5"/>
											<Node score="-0.04201201">
												<SimplePredicate field="MonthsSinceLastTest" operator="lessThan" value="7.5"/>
												<Node score="-0.27683514">
													<SimplePredicate field="AgeAtTest" operator="greaterOrEqual" value="5.5"/>
												</Node>
											</Node>
										</Node>
									</Node>
									<Node score="-0.25946358">
										<SimplePredicate field="AgeAtTest" operator="greaterOrEqual" value="15.5"/>
										<Node score="-0.23833665">
											<SimplePredicate field="GenderFemale" operator="greaterOrEqual" value="0.5"/>
											<Node score="0.4737655">
												<SimplePredicate field="PC5" operator="greaterOrEqual" value="-0.37400758"/>
												<Node score="-0.06868276">
													<SimplePredicate field="PC5" operator="greaterOrEqual" value="-0.27629516"/>
												</Node>
											</Node>
											<Node score="0.12479964">
												<SimplePredicate field="PC4" operator="greaterOrEqual" value="2.0065975"/>
											</Node>
										</Node>
										<Node score="0.018290693">
											<SimplePredicate field="PC7" operator="greaterOrEqual" value="2.7801332"/>
											<Node score="0.44908088">
												<SimplePredicate field="EverTestedForHIVNo" operator="greaterOrEqual" value="0.5"/>
											</Node>
										</Node>
										<Node score="0.26225448">
											<SimplePredicate field="TBScreeningPresumed TB" operator="greaterOrEqual" value="0.5"/>
										</Node>
									</Node>
									<Node score="-0.35319576">
										<SimplePredicate field="PC7" operator="greaterOrEqual" value="-1.351701"/>
										<Node score="0.06780608">
											<SimplePredicate field="PC4" operator="greaterOrEqual" value="3.052326"/>
											<Node score="-0.2194497">
												<SimplePredicate field="AgeAtTest" operator="greaterOrEqual" value="9.5"/>
											</Node>
										</Node>
										<Node score="-0.12439601">
											<SimplePredicate field="PC9" operator="greaterOrEqual" value="1.3883514"/>
										</Node>
									</Node>
									<Node score="0.2322501">
										<SimplePredicate field="PC1" operator="greaterOrEqual" value="0.6413243"/>
									</Node>
								</Node>
							</TreeModel>
						</Segment>
						<Segment id="5">
							<True/>
							<TreeModel functionName="regression" noTrueChildStrategy="returnLastPrediction" x-mathContext="float">
								<MiningSchema>
									<MiningField name="PC1"/>
									<MiningField name="PC2"/>
									<MiningField name="PC3"/>
									<MiningField name="PC4"/>
									<MiningField name="PC5"/>
									<MiningField name="PC6"/>
									<MiningField name="PC7"/>
									<MiningField name="PC8"/>
									<MiningField name="PC9"/>
									<MiningField name="PC10"/>
									<MiningField name="AgeAtTest"/>
									<MiningField name="KeyPopulationTypeSW"/>
									<MiningField name="MaritalStatusDivorced"/>
									<MiningField name="MaritalStatusMinor"/>
									<MiningField name="GenderFemale"/>
									<MiningField name="MonthsSinceLastTest"/>
									<MiningField name="EntryPointMOBILE"/>
									<MiningField name="TestingStrategyHB"/>
									<MiningField name="TBScreeningPresumed TB"/>
									<MiningField name="ClientSelfTestedYes"/>
									<MiningField name="month_of_test4"/>
									<MiningField name="month_of_test8"/>
									<MiningField name="dayofweek5"/>
									<MiningField name="dayofweek2"/>
									<MiningField name="dayofweek3"/>
								</MiningSchema>
								<Node score="-0.24655707">
									<True/>
									<Node score="-0.27954105">
										<SimplePredicate field="TestingStrategyHB" operator="lessThan" value="0.5"/>
										<Node score="-0.25291702">
											<SimplePredicate field="MaritalStatusMinor" operator="lessThan" value="0.5"/>
											<Node score="-0.0024856778">
												<SimplePredicate field="AgeAtTest" operator="greaterOrEqual" value="23.5"/>
												<Node score="-0.14425617">
													<SimplePredicate field="MonthsSinceLastTest" operator="greaterOrEqual" value="13.5"/>
													<Node score="-0.19614185">
														<SimplePredicate field="PC6" operator="greaterOrEqual" value="-0.13392824"/>
														<Node score="0.14121263">
															<SimplePredicate field="dayofweek2" operator="greaterOrEqual" value="0.5"/>
														</Node>
													</Node>
													<Node score="0.22537176">
														<SimplePredicate field="PC6" operator="greaterOrEqual" value="-2.1341648"/>
													</Node>
												</Node>
												<Node score="0.3797514">
													<SimplePredicate field="PC2" operator="greaterOrEqual" value="3.6135132"/>
												</Node>
												<Node score="-0.21126229">
													<SimplePredicate field="MaritalStatusDivorced" operator="lessThan" value="0.5"/>
												</Node>
											</Node>
											<Node score="-0.11057705">
												<SimplePredicate field="PC10" operator="greaterOrEqual" value="0.9477834"/>
												<Node score="-0.2209327">
													<SimplePredicate field="EntryPointMOBILE" operator="lessThan" value="0.5"/>
													<Node score="0.06748745">
														<SimplePredicate field="month_of_test8" operator="greaterOrEqual" value="0.5"/>
													</Node>
												</Node>
												<Node score="0.30004227">
													<SimplePredicate field="MonthsSinceLastTest" operator="lessThan" value="10.5"/>
												</Node>
											</Node>
											<Node score="-0.31252927">
												<SimplePredicate field="PC8" operator="greaterOrEqual" value="-1.1363277"/>
												<Node score="-0.0029294016">
													<SimplePredicate field="KeyPopulationTypeSW" operator="greaterOrEqual" value="0.5"/>
												</Node>
											</Node>
											<Node score="0.4276694">
												<SimplePredicate field="TBScreeningPresumed TB" operator="lessThan" value="2.000001"/>
											</Node>
										</Node>
										<Node score="-0.2636158">
											<SimplePredicate field="TBScreeningPresumed TB" operator="lessThan" value="0.5"/>
											<Node score="0.01627058">
												<SimplePredicate field="MonthsSinceLastTest" operator="greaterOrEqual" value="12.5"/>
												<Node score="-0.18697637">
													<SimplePredicate field="PC3" operator="greaterOrEqual" value="-2.3330526"/>
													<Node score="-0.30329305">
														<SimplePredicate field="MonthsSinceLastTest" operator="lessThan" value="34.5"/>
													</Node>
												</Node>
												<Node score="0.5397111">
													<SimplePredicate field="dayofweek3" operator="greaterOrEqual" value="0.5"/>
												</Node>
											</Node>
											<Node score="-0.3356691">
												<SimplePredicate field="PC8" operator="greaterOrEqual" value="-1.2225231"/>
												<Node score="-0.3006393">
													<SimplePredicate field="PC4" operator="greaterOrEqual" value="-0.37968606"/>
												</Node>
											</Node>
											<Node score="0.53635716">
												<SimplePredicate field="month_of_test4" operator="greaterOrEqual" value="0.5"/>
											</Node>
										</Node>
										<Node score="-0.30825955">
											<SimplePredicate field="PC5" operator="greaterOrEqual" value="-3.1558878"/>
											<Node score="-0.21170174">
												<SimplePredicate field="MonthsSinceLastTest" operator="greaterOrEqual" value="12.5"/>
												<Node score="0.04105096">
													<SimplePredicate field="ClientSelfTestedYes" operator="lessThan" value="2.000001"/>
												</Node>
											</Node>
											<Node score="-0.23699306">
												<SimplePredicate field="PC7" operator="greaterOrEqual" value="-0.9490981"/>
											</Node>
										</Node>
										<Node score="0.53167456">
											<SimplePredicate field="PC1" operator="greaterOrEqual" value="-6.654002"/>
										</Node>
										<Node score="-0.077697426">
											<SimplePredicate field="dayofweek5" operator="greaterOrEqual" value="0.5"/>
										</Node>
									</Node>
									<Node score="-0.18234035">
										<SimplePredicate field="AgeAtTest" operator="greaterOrEqual" value="15.5"/>
										<Node score="0.2551875">
											<SimplePredicate field="PC6" operator="greaterOrEqual" value="1.1282129"/>
											<Node score="0.18984646">
												<SimplePredicate field="GenderFemale" operator="greaterOrEqual" value="0.5"/>
												<Node score="-0.32366225">
													<SimplePredicate field="MonthsSinceLastTest" operator="lessThan" value="7.5"/>
													<Node score="0.022377044">
														<SimplePredicate field="PC7" operator="greaterOrEqual" value="-0.20721194"/>
													</Node>
												</Node>
												<Node score="-0.17745602">
													<SimplePredicate field="AgeAtTest" operator="greaterOrEqual" value="45.5"/>
												</Node>
											</Node>
											<Node score="-0.10883172">
												<SimplePredicate field="AgeAtTest" operator="greaterOrEqual" value="36.5"/>
												<Node score="0.23336539">
													<SimplePredicate field="PC1" operator="greaterOrEqual" value="8.372173"/>
												</Node>
											</Node>
											<Node score="-0.13159636">
												<SimplePredicate field="PC10" operator="greaterOrEqual" value="-0.37265742"/>
											</Node>
										</Node>
										<Node score="-0.15484048">
											<SimplePredicate field="PC5" operator="greaterOrEqual" value="0.1483799"/>
											<Node score="0.37980282">
												<SimplePredicate field="MaritalStatusDivorced" operator="greaterOrEqual" value="0.5"/>
												<Node score="0.043575536">
													<SimplePredicate field="PC1" operator="greaterOrEqual" value="4.6263123"/>
												</Node>
											</Node>
											<Node score="-0.046976462">
												<SimplePredicate field="GenderFemale" operator="greaterOrEqual" value="0.5"/>
											</Node>
										</Node>
										<Node score="-0.25624305">
											<SimplePredicate field="PC6" operator="greaterOrEqual" value="-1.7474277"/>
											<Node score="-0.05866915">
												<SimplePredicate field="MonthsSinceLastTest" operator="lessThan" value="2.5"/>
											</Node>
										</Node>
										<Node score="0.17949376">
											<SimplePredicate field="PC2" operator="greaterOrEqual" value="0.70391905"/>
										</Node>
									</Node>
									<Node score="-0.23992164">
										<SimplePredicate field="PC7" operator="greaterOrEqual" value="-1.351701"/>
										<Node score="-0.32576105">
											<SimplePredicate field="AgeAtTest" operator="greaterOrEqual" value="1.5"/>
											<Node score="-0.18195002">
												<SimplePredicate field="PC10" operator="greaterOrEqual" value="1.1494697"/>
												<Node score="0.04485238">
													<SimplePredicate field="dayofweek2" operator="greaterOrEqual" value="0.5"/>
												</Node>
											</Node>
											<Node score="-0.10261507">
												<SimplePredicate field="PC9" operator="greaterOrEqual" value="1.6265069"/>
											</Node>
										</Node>
										<Node score="0.16824986">
											<SimplePredicate field="PC5" operator="greaterOrEqual" value="-0.6074087"/>
										</Node>
									</Node>
									<Node score="0.18549532">
										<SimplePredicate field="PC1" operator="greaterOrEqual" value="0.6413243"/>
									</Node>
								</Node>
							</TreeModel>
						</Segment>
						<Segment id="6">
							<True/>
							<TreeModel functionName="regression" noTrueChildStrategy="returnLastPrediction" x-mathContext="float">
								<MiningSchema>
									<MiningField name="PC1"/>
									<MiningField name="PC2"/>
									<MiningField name="PC3"/>
									<MiningField name="PC5"/>
									<MiningField name="PC6"/>
									<MiningField name="PC7"/>
									<MiningField name="PC8"/>
									<MiningField name="PC9"/>
									<MiningField name="PC10"/>
									<MiningField name="AgeAtTest"/>
									<MiningField name="MaritalStatusDivorced"/>
									<MiningField name="MaritalStatusMinor"/>
									<MiningField name="GenderFemale"/>
									<MiningField name="MonthsSinceLastTest"/>
									<MiningField name="EntryPointOPD"/>
									<MiningField name="EntryPointPEDS"/>
									<MiningField name="TestingStrategyHB"/>
									<MiningField name="TestingStrategyMOBILE"/>
									<MiningField name="TBScreeningPresumed TB"/>
									<MiningField name="month_of_test12"/>
									<MiningField name="month_of_test5"/>
									<MiningField name="month_of_test9"/>
									<MiningField name="dayofweek2"/>
									<MiningField name="dayofweek3"/>
								</MiningSchema>
								<Node score="-0.26786065">
									<True/>
									<Node score="0.05044135">
										<SimplePredicate field="TestingStrategyHB" operator="lessThan" value="0.5"/>
										<Node score="-0.2909544">
											<SimplePredicate field="TBScreeningPresumed TB" operator="greaterOrEqual" value="0.5"/>
											<Node score="0.0049555805">
												<SimplePredicate field="TestingStrategyMOBILE" operator="lessThan" value="0.5"/>
												<Node score="-0.31900316">
													<SimplePredicate field="AgeAtTest" operator="greaterOrEqual" value="57.5"/>
													<Node score="-0.19343612">
														<SimplePredicate field="PC2" operator="greaterOrEqual" value="-1.5140254"/>
														<Node score="0.057773292">
															<SimplePredicate field="AgeAtTest" operator="greaterOrEqual" value="69.0"/>
														</Node>
													</Node>
												</Node>
												<Node score="-0.28902376">
													<SimplePredicate field="month_of_test12" operator="greaterOrEqual" value="0.5"/>
												</Node>
												<Node score="0.22009102">
													<SimplePredicate field="AgeAtTest" operator="greaterOrEqual" value="32.5"/>
												</Node>
											</Node>
											<Node score="-0.28544748">
												<SimplePredicate field="GenderFemale" operator="greaterOrEqual" value="0.5"/>
												<Node score="0.18490258">
													<SimplePredicate field="MonthsSinceLastTest" operator="greaterOrEqual" value="8.5"/>
													<Node score="-0.19792408">
														<SimplePredicate field="AgeAtTest" operator="greaterOrEqual" value="44.5"/>
													</Node>
												</Node>
											</Node>
											<Node score="0.03146006">
												<SimplePredicate field="MonthsSinceLastTest" operator="greaterOrEqual" value="15.5"/>
											</Node>
											<Node score="-0.1622376">
												<SimplePredicate field="AgeAtTest" operator="greaterOrEqual" value="40.5"/>
											</Node>
										</Node>
										<Node score="0.16260591">
											<SimplePredicate field="MaritalStatusMinor" operator="lessThan" value="0.5"/>
											<Node score="0.5480181">
												<SimplePredicate field="AgeAtTest" operator="greaterOrEqual" value="24.5"/>
												<Node score="-0.0042128153">
													<SimplePredicate field="PC6" operator="greaterOrEqual" value="-0.5098854"/>
													<Node score="-0.2087832">
														<SimplePredicate field="PC3" operator="greaterOrEqual" value="-3.4628367"/>
													</Node>
												</Node>
												<Node score="-0.09775094">
													<SimplePredicate field="PC8" operator="greaterOrEqual" value="-0.84332407"/>
												</Node>
											</Node>
											<Node score="0.2504694">
												<SimplePredicate field="PC2" operator="greaterOrEqual" value="-1.6473145"/>
												<Node score="-0.29431152">
													<SimplePredicate field="PC8" operator="greaterOrEqual" value="-1.1363277"/>
												</Node>
											</Node>
											<Node score="-0.21432926">
												<SimplePredicate field="PC3" operator="greaterOrEqual" value="-3.5752773"/>
											</Node>
										</Node>
										<Node score="-0.24933651">
											<SimplePredicate field="TestingStrategyMOBILE" operator="lessThan" value="0.5"/>
											<Node score="-0.25727522">
												<SimplePredicate field="AgeAtTest" operator="greaterOrEqual" value="25.5"/>
												<Node score="-0.1885342">
													<SimplePredicate field="PC7" operator="greaterOrEqual" value="1.0978935"/>
												</Node>
											</Node>
											<Node score="-0.305614">
												<SimplePredicate field="TBScreeningPresumed TB" operator="lessThan" value="1.0E-6"/>
											</Node>
										</Node>
										<Node score="0.07046787">
											<SimplePredicate field="MonthsSinceLastTest" operator="greaterOrEqual" value="12.5"/>
											<Node score="-0.30826673">
												<SimplePredicate field="PC3" operator="greaterOrEqual" value="-3.1253948"/>
											</Node>
										</Node>
										<Node score="-0.32339436">
											<SimplePredicate field="TBScreeningPresumed TB" operator="lessThan" value="1.0E-6"/>
										</Node>
									</Node>
									<Node score="0.0075114826">
										<SimplePredicate field="AgeAtTest" operator="greaterOrEqual" value="15.5"/>
										<Node score="0.017304813">
											<SimplePredicate field="TBScreeningPresumed TB" operator="greaterOrEqual" value="0.5"/>
											<Node score="0.38753715">
												<SimplePredicate field="EntryPointPEDS" operator="lessThan" value="0.5"/>
												<Node score="0.119348176">
													<SimplePredicate field="month_of_test5" operator="greaterOrEqual" value="0.5"/>
												</Node>
												<Node score="0.15767488">
													<SimplePredicate field="AgeAtTest" operator="greaterOrEqual" value="35.5"/>
												</Node>
											</Node>
										</Node>
										<Node score="-0.29473355">
											<SimplePredicate field="PC3" operator="greaterOrEqual" value="2.753821"/>
											<Node score="-0.037098538">
												<SimplePredicate field="MaritalStatusDivorced" operator="lessThan" value="2.000001"/>
												<Node score="-0.22832517">
													<SimplePredicate field="MonthsSinceLastTest" operator="lessThan" value="11.5"/>
												</Node>
											</Node>
											<Node score="0.17863448">
												<SimplePredicate field="EntryPointOPD" operator="greaterOrEqual" value="0.5"/>
											</Node>
										</Node>
										<Node score="0.23341186">
											<SimplePredicate field="PC2" operator="greaterOrEqual" value="3.0383801"/>
											<Node score="-0.18375075">
												<SimplePredicate field="PC1" operator="greaterOrEqual" value="-6.4542665"/>
											</Node>
										</Node>
										<Node score="-0.097350486">
											<SimplePredicate field="PC5" operator="greaterOrEqual" value="1.7373307"/>
										</Node>
									</Node>
									<Node score="-0.30008587">
										<SimplePredicate field="PC10" operator="greaterOrEqual" value="0.44529384"/>
										<Node score="0.17755026">
											<SimplePredicate field="PC9" operator="greaterOrEqual" value="0.3538953"/>
										</Node>
										<Node score="0.04831075">
											<SimplePredicate field="dayofweek3" operator="greaterOrEqual" value="0.5"/>
										</Node>
										<Node score="0.020916846">
											<SimplePredicate field="dayofweek2" operator="greaterOrEqual" value="0.5"/>
										</Node>
									</Node>
									<Node score="-0.3075268">
										<SimplePredicate field="AgeAtTest" operator="greaterOrEqual" value="2.5"/>
										<Node score="0.18358769">
											<SimplePredicate field="month_of_test9" operator="greaterOrEqual" value="0.5"/>
											<Node score="-0.2356143">
												<SimplePredicate field="PC10" operator="greaterOrEqual" value="-0.04092232"/>
											</Node>
										</Node>
										<Node score="-0.05959651">
											<SimplePredicate field="PC9" operator="greaterOrEqual" value="1.3883514"/>
										</Node>
									</Node>
									<Node score="0.24293803">
										<SimplePredicate field="PC1" operator="greaterOrEqual" value="-0.61297905"/>
										<Node score="-0.10971904">
											<SimplePredicate field="GenderFemale" operator="greaterOrEqual" value="0.5"/>
										</Node>
									</Node>
								</Node>
							</TreeModel>
						</Segment>
						<Segment id="7">
							<True/>
							<TreeModel functionName="regression" noTrueChildStrategy="returnLastPrediction" x-mathContext="float">
								<MiningSchema>
									<MiningField name="PC1"/>
									<MiningField name="PC2"/>
									<MiningField name="PC3"/>
									<MiningField name="PC4"/>
									<MiningField name="PC5"/>
									<MiningField name="PC6"/>
									<MiningField name="PC7"/>
									<MiningField name="PC8"/>
									<MiningField name="PC9"/>
									<MiningField name="PC10"/>
									<MiningField name="AgeAtTest"/>
									<MiningField name="MaritalStatusDivorced"/>
									<MiningField name="MaritalStatusWidowed"/>
									<MiningField name="MaritalStatusMinor"/>
									<MiningField name="GenderFemale"/>
									<MiningField name="MonthsSinceLastTest"/>
									<MiningField name="EntryPointOPD"/>
									<MiningField name="EntryPointMTC"/>
									<MiningField name="EntryPointMOBILE"/>
									<MiningField name="TestingStrategyHB"/>
									<MiningField name="TBScreeningPresumed TB"/>
									<MiningField name="ClientSelfTestedYes"/>
									<MiningField name="month_of_test6"/>
									<MiningField name="dayofweek2"/>
									<MiningField name="dayofweek3"/>
								</MiningSchema>
								<Node score="0.28883722">
									<True/>
									<Node score="-0.054226715">
										<SimplePredicate field="TestingStrategyHB" operator="lessThan" value="0.5"/>
										<Node score="-0.31123912">
											<SimplePredicate field="MaritalStatusMinor" operator="lessThan" value="0.5"/>
											<Node score="-0.023464972">
												<SimplePredicate field="AgeAtTest" operator="greaterOrEqual" value="20.5"/>
												<Node score="0.6319065">
													<SimplePredicate field="MonthsSinceLastTest" operator="greaterOrEqual" value="6.5"/>
													<Node score="-0.1030699">
														<SimplePredicate field="PC3" operator="greaterOrEqual" value="-4.482308"/>
														<Node score="0.12385037">
															<SimplePredicate field="PC1" operator="greaterOrEqual" value="6.983368"/>
														</Node>
													</Node>
													<Node score="0.12550394">
														<SimplePredicate field="EntryPointOPD" operator="lessThan" value="0.5"/>
													</Node>
												</Node>
												<Node score="-0.18424143">
													<SimplePredicate field="MaritalStatusDivorced" operator="lessThan" value="0.5"/>
													<Node score="0.34712663">
														<SimplePredicate field="PC2" operator="greaterOrEqual" value="3.6135132"/>
													</Node>
												</Node>
												<Node score="0.26452315">
													<SimplePredicate field="PC7" operator="greaterOrEqual" value="0.70744246"/>
												</Node>
											</Node>
											<Node score="0.20753069">
												<SimplePredicate field="PC10" operator="greaterOrEqual" value="0.9477834"/>
												<Node score="0.007786092">
													<SimplePredicate field="EntryPointMOBILE" operator="lessThan" value="0.5"/>
													<Node score="-0.24170418">
														<SimplePredicate field="AgeAtTest" operator="greaterOrEqual" value="15.5"/>
													</Node>
												</Node>
											</Node>
											<Node score="-0.24797864">
												<SimplePredicate field="MonthsSinceLastTest" operator="lessThan" value="11.5"/>
												<Node score="-0.060459983">
													<SimplePredicate field="PC7" operator="greaterOrEqual" value="1.1954415"/>
												</Node>
											</Node>
											<Node score="-0.12270719">
												<SimplePredicate field="EntryPointMTC" operator="greaterOrEqual" value="0.5"/>
											</Node>
										</Node>
										<Node score="-0.20699717">
											<SimplePredicate field="TBScreeningPresumed TB" operator="lessThan" value="0.5"/>
											<Node score="-0.28221712">
												<SimplePredicate field="MonthsSinceLastTest" operator="greaterOrEqual" value="12.5"/>
												<Node score="-0.1050834">
													<SimplePredicate field="PC3" operator="greaterOrEqual" value="-1.4476689"/>
													<Node score="-0.26511052">
														<SimplePredicate field="MonthsSinceLastTest" operator="lessThan" value="34.5"/>
													</Node>
												</Node>
												<Node score="0.06840362">
													<SimplePredicate field="AgeAtTest" operator="greaterOrEqual" value="19.5"/>
												</Node>
											</Node>
											<Node score="-0.3018447">
												<SimplePredicate field="PC8" operator="greaterOrEqual" value="-1.2225231"/>
												<Node score="-0.24928162">
													<SimplePredicate field="PC4" operator="greaterOrEqual" value="-0.37968606"/>
												</Node>
											</Node>
											<Node score="0.33008313">
												<SimplePredicate field="ClientSelfTestedYes" operator="greaterOrEqual" value="0.5"/>
											</Node>
										</Node>
										<Node score="-0.16942376">
											<SimplePredicate field="PC5" operator="greaterOrEqual" value="-3.1558878"/>
											<Node score="-0.26229647">
												<SimplePredicate field="PC4" operator="greaterOrEqual" value="1.0300263"/>
												<Node score="0.06484309">
													<SimplePredicate field="EntryPointMTC" operator="greaterOrEqual" value="0.5"/>
												</Node>
											</Node>
											<Node score="0.12908332">
												<SimplePredicate field="PC3" operator="greaterOrEqual" value="2.7536483"/>
											</Node>
										</Node>
										<Node score="0.44016156">
											<SimplePredicate field="PC1" operator="greaterOrEqual" value="-6.654002"/>
										</Node>
										<Node score="-0.26007983">
											<SimplePredicate field="GenderFemale" operator="greaterOrEqual" value="0.5"/>
										</Node>
									</Node>
									<Node score="-0.021177724">
										<SimplePredicate field="AgeAtTest" operator="greaterOrEqual" value="15.5"/>
										<Node score="-0.05046787">
											<SimplePredicate field="GenderFemale" operator="greaterOrEqual" value="0.5"/>
											<Node score="0.42012966">
												<SimplePredicate field="MaritalStatusWidowed" operator="greaterOrEqual" value="0.5"/>
												<Node score="-0.12444505">
													<SimplePredicate field="PC4" operator="greaterOrEqual" value="4.549985"/>
												</Node>
												<Node score="-0.03667599">
													<SimplePredicate field="AgeAtTest" operator="greaterOrEqual" value="44.5"/>
												</Node>
											</Node>
											<Node score="-0.16951388">
												<SimplePredicate field="PC3" operator="greaterOrEqual" value="3.0033326"/>
												<Node score="0.21813418">
													<SimplePredicate field="MonthsSinceLastTest" operator="greaterOrEqual" value="15.5"/>
												</Node>
											</Node>
											<Node score="0.039756425">
												<SimplePredicate field="PC6" operator="greaterOrEqual" value="-0.9259201"/>
											</Node>
										</Node>
										<Node score="0.043181036">
											<SimplePredicate field="PC4" operator="greaterOrEqual" value="-0.3827901"/>
											<Node score="0.023868069">
												<SimplePredicate field="AgeAtTest" operator="greaterOrEqual" value="30.5"/>
												<Node score="-0.13061203">
													<SimplePredicate field="PC10" operator="greaterOrEqual" value="0.6610974"/>
												</Node>
											</Node>
											<Node score="-0.16121098">
												<SimplePredicate field="PC2" operator="greaterOrEqual" value="-3.3182564"/>
											</Node>
										</Node>
										<Node score="-0.22474359">
											<SimplePredicate field="PC3" operator="greaterOrEqual" value="-5.1969643"/>
											<Node score="0.10151153">
												<SimplePredicate field="AgeAtTest" operator="greaterOrEqual" value="60.5"/>
											</Node>
										</Node>
										<Node score="0.3510342">
											<SimplePredicate field="month_of_test6" operator="greaterOrEqual" value="0.5"/>
										</Node>
									</Node>
									<Node score="-0.27563354">
										<SimplePredicate field="PC10" operator="greaterOrEqual" value="0.44529384"/>
										<Node score="0.14608917">
											<SimplePredicate field="PC9" operator="greaterOrEqual" value="0.3538953"/>
										</Node>
										<Node score="0.039442584">
											<SimplePredicate field="dayofweek3" operator="greaterOrEqual" value="0.5"/>
										</Node>
										<Node score="0.017078329">
											<SimplePredicate field="dayofweek2" operator="greaterOrEqual" value="0.5"/>
										</Node>
									</Node>
									<Node score="4.997687E-4">
										<SimplePredicate field="PC9" operator="greaterOrEqual" value="-0.76677406"/>
										<Node score="-0.3023797">
											<SimplePredicate field="PC7" operator="greaterOrEqual" value="-1.351701"/>
											<Node score="-0.20206854">
												<SimplePredicate field="PC9" operator="greaterOrEqual" value="0.6679087"/>
											</Node>
										</Node>
									</Node>
									<Node score="-0.2539842">
										<SimplePredicate field="AgeAtTest" operator="greaterOrEqual" value="5.5"/>
									</Node>
								</Node>
							</TreeModel>
						</Segment>
						<Segment id="8">
							<True/>
							<TreeModel functionName="regression" noTrueChildStrategy="returnLastPrediction" x-mathContext="float">
								<MiningSchema>
									<MiningField name="PC1"/>
									<MiningField name="PC2"/>
									<MiningField name="PC4"/>
									<MiningField name="PC5"/>
									<MiningField name="PC6"/>
									<MiningField name="PC7"/>
									<MiningField name="PC9"/>
									<MiningField name="AgeAtTest"/>
									<MiningField name="MaritalStatusDivorced"/>
									<MiningField name="MaritalStatusMinor"/>
									<MiningField name="GenderFemale"/>
									<MiningField name="MonthsSinceLastTest"/>
									<MiningField name="EntryPointOPD"/>
									<MiningField name="EntryPointIPD"/>
									<MiningField name="TestingStrategyHB"/>
									<MiningField name="TestingStrategyMOBILE"/>
									<MiningField name="TBScreeningPresumed TB"/>
									<MiningField name="month_of_test6"/>
									<MiningField name="month_of_test5"/>
									<MiningField name="month_of_test7"/>
									<MiningField name="dayofweek5"/>
									<MiningField name="dayofweek3"/>
									<MiningField name="dayofweek7"/>
								</MiningSchema>
								<Node score="-0.2389936">
									<True/>
									<Node score="-0.19878642">
										<SimplePredicate field="TestingStrategyHB" operator="lessThan" value="0.5"/>
										<Node score="0.06774471">
											<SimplePredicate field="TestingStrategyMOBILE" operator="lessThan" value="0.5"/>
											<Node score="0.0072198156">
												<SimplePredicate field="TBScreeningPresumed TB" operator="greaterOrEqual" value="0.5"/>
												<Node score="-0.14504528">
													<SimplePredicate field="AgeAtTest" operator="greaterOrEqual" value="53.5"/>
													<Node score="-0.038710278">
														<SimplePredicate field="GenderFemale" operator="greaterOrEqual" value="0.5"/>
														<Node score="-0.31003428">
															<SimplePredicate field="PC4" operator="greaterOrEqual" value="-1.2948208"/>
														</Node>
													</Node>
													<Node score="0.33786544">
														<SimplePredicate field="PC7" operator="greaterOrEqual" value="1.0978935"/>
													</Node>
												</Node>
												<Node score="0.0087860245">
													<SimplePredicate field="EntryPointIPD" operator="lessThan" value="0.5"/>
													<Node score="0.35075343">
														<SimplePredicate field="month_of_test5" operator="greaterOrEqual" value="0.5"/>
													</Node>
												</Node>
												<Node score="0.46179992">
													<SimplePredicate field="PC4" operator="greaterOrEqual" value="-0.8922883"/>
												</Node>
											</Node>
											<Node score="-0.17879456">
												<SimplePredicate field="AgeAtTest" operator="greaterOrEqual" value="20.5"/>
												<Node score="0.16151123">
													<SimplePredicate field="MaritalStatusDivorced" operator="greaterOrEqual" value="0.5"/>
													<Node score="-0.122194044">
														<SimplePredicate field="PC1" operator="greaterOrEqual" value="3.9634113"/>
													</Node>
												</Node>
												<Node score="0.018425975">
													<SimplePredicate field="MonthsSinceLastTest" operator="greaterOrEqual" value="31.5"/>
												</Node>
											</Node>
											<Node score="-0.22504479">
												<SimplePredicate field="PC5" operator="greaterOrEqual" value="-2.9616392"/>
												<Node score="-0.2879401">
													<SimplePredicate field="EntryPointOPD" operator="greaterOrEqual" value="0.5"/>
												</Node>
											</Node>
											<Node score="-0.23312019">
												<SimplePredicate field="AgeAtTest" operator="greaterOrEqual" value="14.5"/>
											</Node>
										</Node>
										<Node score="-0.23322672">
											<SimplePredicate field="MonthsSinceLastTest" operator="greaterOrEqual" value="13.5"/>
											<Node score="-0.061108205">
												<SimplePredicate field="PC7" operator="greaterOrEqual" value="-0.024014533"/>
												<Node score="-0.27061298">
													<SimplePredicate field="PC9" operator="greaterOrEqual" value="0.67043066"/>
												</Node>
											</Node>
											<Node score="-0.19927183">
												<SimplePredicate field="month_of_test5" operator="greaterOrEqual" value="0.5"/>
											</Node>
											<Node score="0.39535108">
												<SimplePredicate field="MonthsSinceLastTest" operator="lessThan" value="21.5"/>
											</Node>
										</Node>
										<Node score="-0.2965057">
											<SimplePredicate field="MaritalStatusMinor" operator="lessThan" value="0.5"/>
											<Node score="-0.016283322">
												<SimplePredicate field="PC5" operator="greaterOrEqual" value="1.7046566"/>
												<Node score="0.40593165">
													<SimplePredicate field="dayofweek5" operator="greaterOrEqual" value="0.5"/>
												</Node>
											</Node>
											<Node score="0.063289285">
												<SimplePredicate field="AgeAtTest" operator="greaterOrEqual" value="43.0"/>
											</Node>
										</Node>
										<Node score="-0.21296558">
											<SimplePredicate field="PC5" operator="greaterOrEqual" value="1.7721285"/>
											<Node score="0.36946803">
												<SimplePredicate field="AgeAtTest" operator="greaterOrEqual" value="27.5"/>
											</Node>
										</Node>
										<Node score="-0.29543152">
											<SimplePredicate field="TBScreeningPresumed TB" operator="lessThan" value="0.5"/>
										</Node>
									</Node>
									<Node score="-0.19016758">
										<SimplePredicate field="AgeAtTest" operator="greaterOrEqual" value="15.5"/>
										<Node score="-0.0088045625">
											<SimplePredicate field="TBScreeningPresumed TB" operator="greaterOrEqual" value="0.5"/>
											<Node score="0.072285876">
												<SimplePredicate field="MonthsSinceLastTest" operator="lessThan" value="31.5"/>
												<Node score="0.0394799">
													<SimplePredicate field="month_of_test7" operator="greaterOrEqual" value="0.5"/>
												</Node>
												<Node score="0.31750628">
													<SimplePredicate field="EntryPointOPD" operator="lessThan" value="2.000001"/>
												</Node>
											</Node>
										</Node>
										<Node score="-0.007740635">
											<SimplePredicate field="GenderFemale" operator="greaterOrEqual" value="0.5"/>
											<Node score="0.3963001">
												<SimplePredicate field="MaritalStatusDivorced" operator="greaterOrEqual" value="0.5"/>
												<Node score="-0.16504446">
													<SimplePredicate field="MonthsSinceLastTest" operator="lessThan" value="14.0"/>
												</Node>
											</Node>
											<Node score="-0.2311366">
												<SimplePredicate field="dayofweek7" operator="greaterOrEqual" value="0.5"/>
											</Node>
										</Node>
										<Node score="-0.2775668">
											<SimplePredicate field="PC2" operator="greaterOrEqual" value="3.5470452"/>
											<Node score="0.13037735">
												<SimplePredicate field="AgeAtTest" operator="greaterOrEqual" value="60.5"/>
											</Node>
										</Node>
										<Node score="-0.044529177">
											<SimplePredicate field="PC4" operator="greaterOrEqual" value="-3.0923672"/>
										</Node>
									</Node>
									<Node score="-0.29242766">
										<SimplePredicate field="MonthsSinceLastTest" operator="greaterOrEqual" value="1.5"/>
									</Node>
									<Node score="-0.27708593">
										<SimplePredicate field="PC6" operator="greaterOrEqual" value="-0.5652294"/>
										<Node score="-0.17970245">
											<SimplePredicate field="dayofweek3" operator="greaterOrEqual" value="0.5"/>
											<Node score="0.08093827">
												<SimplePredicate field="PC4" operator="greaterOrEqual" value="0.97907114"/>
											</Node>
										</Node>
										<Node score="-0.026171384">
											<SimplePredicate field="month_of_test6" operator="greaterOrEqual" value="0.5"/>
										</Node>
									</Node>
									<Node score="0.20952807">
										<SimplePredicate field="MaritalStatusMinor" operator="lessThan" value="0.5"/>
										<Node score="-4.6597992E-4">
											<SimplePredicate field="dayofweek3" operator="greaterOrEqual" value="0.5"/>
										</Node>
									</Node>
									<Node score="-0.020165907">
										<SimplePredicate field="EntryPointOPD" operator="lessThan" value="0.5"/>
									</Node>
								</Node>
							</TreeModel>
						</Segment>
						<Segment id="9">
							<True/>
							<TreeModel functionName="regression" noTrueChildStrategy="returnLastPrediction" x-mathContext="float">
								<MiningSchema>
									<MiningField name="PC1"/>
									<MiningField name="PC3"/>
									<MiningField name="PC4"/>
									<MiningField name="PC6"/>
									<MiningField name="PC7"/>
									<MiningField name="PC8"/>
									<MiningField name="PC9"/>
									<MiningField name="PC10"/>
									<MiningField name="AgeAtTest"/>
									<MiningField name="MaritalStatusDivorced"/>
									<MiningField name="MaritalStatusPolygamous"/>
									<MiningField name="MaritalStatusWidowed"/>
									<MiningField name="MaritalStatusMinor"/>
									<MiningField name="GenderFemale"/>
									<MiningField name="MonthsSinceLastTest"/>
									<MiningField name="ClientTestedAsCouple"/>
									<MiningField name="TestingStrategyHB"/>
									<MiningField name="TestingStrategyMOBILE"/>
									<MiningField name="TBScreeningPresumed TB"/>
									<MiningField name="month_of_test4"/>
									<MiningField name="month_of_test2"/>
									<MiningField name="month_of_test5"/>
									<MiningField name="month_of_test9"/>
									<MiningField name="dayofweek5"/>
									<MiningField name="dayofweek2"/>
									<MiningField name="dayofweek7"/>
								</MiningSchema>
								<Node score="0.10145372">
									<True/>
									<Node score="-0.19369768">
										<SimplePredicate field="TestingStrategyHB" operator="lessThan" value="0.5"/>
										<Node score="-0.22749417">
											<SimplePredicate field="TestingStrategyMOBILE" operator="lessThan" value="0.5"/>
											<Node score="-0.22277935">
												<SimplePredicate field="AgeAtTest" operator="greaterOrEqual" value="25.5"/>
												<Node score="0.12386896">
													<SimplePredicate field="MonthsSinceLastTest" operator="lessThan" value="2.5"/>
													<Node score="0.40070507">
														<SimplePredicate field="PC7" operator="greaterOrEqual" value="1.2248125"/>
														<Node score="1.076452">
															<SimplePredicate field="PC3" operator="greaterOrEqual" value="0.8533466"/>
														</Node>
													</Node>
													<Node score="-0.10678109">
														<SimplePredicate field="PC3" operator="greaterOrEqual" value="-3.4628367"/>
													</Node>
												</Node>
												<Node score="0.010498321">
													<SimplePredicate field="MaritalStatusPolygamous" operator="lessThan" value="0.5"/>
													<Node score="-0.3001211">
														<SimplePredicate field="AgeAtTest" operator="greaterOrEqual" value="52.5"/>
													</Node>
												</Node>
												<Node score="-0.12605539">
													<SimplePredicate field="PC7" operator="greaterOrEqual" value="-0.87232876"/>
												</Node>
											</Node>
											<Node score="0.20211197">
												<SimplePredicate field="MaritalStatusDivorced" operator="greaterOrEqual" value="0.5"/>
												<Node score="-0.12361253">
													<SimplePredicate field="PC1" operator="greaterOrEqual" value="3.9634113"/>
												</Node>
											</Node>
											<Node score="-0.15485033">
												<SimplePredicate field="TBScreeningPresumed TB" operator="greaterOrEqual" value="0.5"/>
												<Node score="0.060564175">
													<SimplePredicate field="AgeAtTest" operator="greaterOrEqual" value="18.5"/>
												</Node>
											</Node>
											<Node score="-0.090240136">
												<SimplePredicate field="PC10" operator="greaterOrEqual" value="1.284145"/>
											</Node>
										</Node>
										<Node score="0.06355897">
											<SimplePredicate field="MonthsSinceLastTest" operator="greaterOrEqual" value="12.5"/>
											<Node score="-0.31750458">
												<SimplePredicate field="month_of_test5" operator="greaterOrEqual" value="0.5"/>
												<Node score="-0.049646173">
													<SimplePredicate field="dayofweek7" operator="greaterOrEqual" value="0.5"/>
												</Node>
											</Node>
											<Node score="-0.052494716">
												<SimplePredicate field="PC7" operator="greaterOrEqual" value="-0.024014533"/>
												<Node score="-0.24751835">
													<SimplePredicate field="PC9" operator="greaterOrEqual" value="0.67043066"/>
												</Node>
											</Node>
											<Node score="0.39682224">
												<SimplePredicate field="GenderFemale" operator="greaterOrEqual" value="0.5"/>
											</Node>
										</Node>
										<Node score="-0.287668">
											<SimplePredicate field="TBScreeningPresumed TB" operator="lessThan" value="0.5"/>
											<Node score="-0.16677424">
												<SimplePredicate field="MaritalStatusMinor" operator="lessThan" value="0.5"/>
												<Node score="0.20479189">
													<SimplePredicate field="dayofweek5" operator="greaterOrEqual" value="0.5"/>
												</Node>
											</Node>
											<Node score="0.1273771">
												<SimplePredicate field="month_of_test4" operator="greaterOrEqual" value="0.5"/>
											</Node>
										</Node>
										<Node score="-0.08275584">
											<SimplePredicate field="dayofweek2" operator="greaterOrEqual" value="0.5"/>
											<Node score="0.41402832">
												<SimplePredicate field="GenderFemale" operator="greaterOrEqual" value="0.5"/>
											</Node>
										</Node>
										<Node score="0.14643641">
											<SimplePredicate field="MaritalStatusWidowed" operator="lessThan" value="0.5"/>
										</Node>
									</Node>
									<Node score="-0.28144857">
										<SimplePredicate field="AgeAtTest" operator="greaterOrEqual" value="12.5"/>
										<Node score="0.4983019">
											<SimplePredicate field="MonthsSinceLastTest" operator="lessThan" value="2.5"/>
											<Node score="-0.27445146">
												<SimplePredicate field="PC9" operator="greaterOrEqual" value="-0.7301356"/>
												<Node score="0.017346198">
													<SimplePredicate field="PC9" operator="greaterOrEqual" value="0.048807804"/>
													<Node score="0.41229185">
														<SimplePredicate field="ClientTestedAsCouple" operator="greaterOrEqual" value="0.5"/>
													</Node>
												</Node>
												<Node score="0.04147862">
													<SimplePredicate field="month_of_test2" operator="greaterOrEqual" value="0.5"/>
												</Node>
											</Node>
											<Node score="0.2654583">
												<SimplePredicate field="MaritalStatusPolygamous" operator="lessThan" value="0.5"/>
												<Node score="-0.19086812">
													<SimplePredicate field="PC8" operator="greaterOrEqual" value="1.6281717"/>
												</Node>
											</Node>
											<Node score="0.11050099">
												<SimplePredicate field="AgeAtTest" operator="greaterOrEqual" value="31.5"/>
											</Node>
										</Node>
										<Node score="0.24501048">
											<SimplePredicate field="MaritalStatusPolygamous" operator="greaterOrEqual" value="0.5"/>
											<Node score="-0.097997665">
												<SimplePredicate field="TBScreeningPresumed TB" operator="lessThan" value="2.000001"/>
												<Node score="0.3518534">
													<SimplePredicate field="PC6" operator="greaterOrEqual" value="-1.1317527"/>
												</Node>
											</Node>
											<Node score="-0.24577487">
												<SimplePredicate field="PC8" operator="greaterOrEqual" value="-0.5603633"/>
											</Node>
										</Node>
										<Node score="0.030066753">
											<SimplePredicate field="GenderFemale" operator="greaterOrEqual" value="0.5"/>
											<Node score="-0.06186345">
												<SimplePredicate field="TBScreeningPresumed TB" operator="lessThan" value="0.5"/>
											</Node>
										</Node>
										<Node score="-0.08909506">
											<SimplePredicate field="AgeAtTest" operator="greaterOrEqual" value="20.5"/>
										</Node>
									</Node>
									<Node score="0.19928327">
										<SimplePredicate field="month_of_test9" operator="greaterOrEqual" value="0.5"/>
										<Node score="-0.125219">
											<SimplePredicate field="PC10" operator="greaterOrEqual" value="-0.04092232"/>
										</Node>
									</Node>
									<Node score="-0.269189">
										<SimplePredicate field="AgeAtTest" operator="greaterOrEqual" value="1.5"/>
										<Node score="0.15955362">
											<SimplePredicate field="PC4" operator="greaterOrEqual" value="1.8371054"/>
											<Node score="-0.20394568">
												<SimplePredicate field="AgeAtTest" operator="greaterOrEqual" value="6.5"/>
											</Node>
										</Node>
										<Node score="-0.07462959">
											<SimplePredicate field="PC6" operator="greaterOrEqual" value="2.305975"/>
										</Node>
									</Node>
									<Node score="-0.045907468">
										<SimplePredicate field="PC6" operator="greaterOrEqual" value="0.5131275"/>
									</Node>
								</Node>
							</TreeModel>
						</Segment>
						<Segment id="10">
							<True/>
							<TreeModel functionName="regression" noTrueChildStrategy="returnLastPrediction" x-mathContext="float">
								<MiningSchema>
									<MiningField name="PC1"/>
									<MiningField name="PC3"/>
									<MiningField name="PC5"/>
									<MiningField name="PC6"/>
									<MiningField name="PC8"/>
									<MiningField name="PC9"/>
									<MiningField name="PC10"/>
									<MiningField name="AgeAtTest"/>
									<MiningField name="KeyPopulationTypeGP"/>
									<MiningField name="MaritalStatusDivorced"/>
									<MiningField name="MaritalStatusMinor"/>
									<MiningField name="GenderFemale"/>
									<MiningField name="EverTestedForHIVNo"/>
									<MiningField name="MonthsSinceLastTest"/>
									<MiningField name="EntryPointOPD"/>
									<MiningField name="EntryPointMTC"/>
									<MiningField name="EntryPointPEDS"/>
									<MiningField name="TestingStrategyHB"/>
									<MiningField name="TestingStrategyMOBILE"/>
									<MiningField name="TBScreeningPresumed TB"/>
									<MiningField name="month_of_test3"/>
									<MiningField name="month_of_test4"/>
									<MiningField name="month_of_test5"/>
									<MiningField name="month_of_test9"/>
									<MiningField name="month_of_test7"/>
									<MiningField name="dayofweek5"/>
									<MiningField name="dayofweek2"/>
									<MiningField name="dayofweek4"/>
								</MiningSchema>
								<Node score="0.01844698">
									<True/>
									<Node score="-0.29116905">
										<SimplePredicate field="TestingStrategyHB" operator="lessThan" value="0.5"/>
										<Node score="-0.028594075">
											<SimplePredicate field="TestingStrategyMOBILE" operator="lessThan" value="0.5"/>
											<Node score="0.055200025">
												<SimplePredicate field="AgeAtTest" operator="greaterOrEqual" value="20.5"/>
												<Node score="0.19079126">
													<SimplePredicate field="TBScreeningPresumed TB" operator="greaterOrEqual" value="0.5"/>
													<Node score="0.20615046">
														<SimplePredicate field="PC3" operator="greaterOrEqual" value="0.8203607"/>
														<Node score="-0.1455485">
															<SimplePredicate field="AgeAtTest" operator="greaterOrEqual" value="56.5"/>
														</Node>
													</Node>
													<Node score="-0.18641302">
														<SimplePredicate field="PC9" operator="greaterOrEqual" value="-0.8682943"/>
													</Node>
												</Node>
												<Node score="-0.06352519">
													<SimplePredicate field="EntryPointOPD" operator="greaterOrEqual" value="0.5"/>
													<Node score="-0.1730027">
														<SimplePredicate field="PC1" operator="greaterOrEqual" value="-3.7523065"/>
													</Node>
												</Node>
												<Node score="-0.106637955">
													<SimplePredicate field="PC3" operator="greaterOrEqual" value="-2.7896276"/>
												</Node>
											</Node>
											<Node score="-0.1699883">
												<SimplePredicate field="PC5" operator="greaterOrEqual" value="-2.9616392"/>
												<Node score="0.2874588">
													<SimplePredicate field="TBScreeningPresumed TB" operator="greaterOrEqual" value="0.5"/>
													<Node score="-0.22251512">
														<SimplePredicate field="PC3" operator="greaterOrEqual" value="1.4357936"/>
													</Node>
												</Node>
												<Node score="-0.2581061">
													<SimplePredicate field="EntryPointOPD" operator="greaterOrEqual" value="0.5"/>
												</Node>
											</Node>
											<Node score="-0.07874911">
												<SimplePredicate field="EverTestedForHIVNo" operator="greaterOrEqual" value="0.5"/>
												<Node score="0.41773146">
													<SimplePredicate field="AgeAtTest" operator="greaterOrEqual" value="7.5"/>
												</Node>
											</Node>
											<Node score="-0.27430412">
												<SimplePredicate field="AgeAtTest" operator="greaterOrEqual" value="17.5"/>
											</Node>
										</Node>
										<Node score="-0.27571562">
											<SimplePredicate field="MonthsSinceLastTest" operator="lessThan" value="12.5"/>
											<Node score="-0.062227733">
												<SimplePredicate field="MaritalStatusMinor" operator="lessThan" value="0.5"/>
												<Node score="-0.0069027725">
													<SimplePredicate field="PC5" operator="greaterOrEqual" value="1.3681613"/>
													<Node score="0.29443198">
														<SimplePredicate field="dayofweek5" operator="greaterOrEqual" value="0.5"/>
													</Node>
												</Node>
												<Node score="-0.2797668">
													<SimplePredicate field="KeyPopulationTypeGP" operator="greaterOrEqual" value="0.5"/>
												</Node>
											</Node>
											<Node score="-0.18189043">
												<SimplePredicate field="TBScreeningPresumed TB" operator="greaterOrEqual" value="0.5"/>
												<Node score="0.10403491">
													<SimplePredicate field="dayofweek2" operator="greaterOrEqual" value="0.5"/>
												</Node>
											</Node>
											<Node score="0.10191134">
												<SimplePredicate field="month_of_test4" operator="greaterOrEqual" value="0.5"/>
											</Node>
										</Node>
										<Node score="-0.26271904">
											<SimplePredicate field="PC10" operator="greaterOrEqual" value="-0.06288482"/>
											<Node score="-0.28276846">
												<SimplePredicate field="month_of_test5" operator="greaterOrEqual" value="0.5"/>
												<Node score="-0.09389957">
													<SimplePredicate field="GenderFemale" operator="greaterOrEqual" value="0.5"/>
												</Node>
											</Node>
											<Node score="0.22103928">
												<SimplePredicate field="AgeAtTest" operator="greaterOrEqual" value="19.5"/>
											</Node>
										</Node>
										<Node score="0.06533764">
											<SimplePredicate field="MaritalStatusDivorced" operator="lessThan" value="0.5"/>
											<Node score="-0.19277659">
												<SimplePredicate field="month_of_test3" operator="greaterOrEqual" value="0.5"/>
											</Node>
										</Node>
										<Node score="-0.09124386">
											<SimplePredicate field="dayofweek4" operator="greaterOrEqual" value="0.5"/>
										</Node>
									</Node>
									<Node score="0.32031447">
										<SimplePredicate field="TBScreeningPresumed TB" operator="greaterOrEqual" value="0.5"/>
										<Node score="-0.1336534">
											<SimplePredicate field="month_of_test5" operator="greaterOrEqual" value="0.5"/>
											<Node score="0.17674878">
												<SimplePredicate field="MonthsSinceLastTest" operator="lessThan" value="8.0"/>
											</Node>
										</Node>
										<Node score="-0.020768706">
											<SimplePredicate field="dayofweek5" operator="greaterOrEqual" value="0.5"/>
											<Node score="0.16332883">
												<SimplePredicate field="MonthsSinceLastTest" operator="lessThan" value="10.0"/>
											</Node>
										</Node>
									</Node>
									<Node score="-0.3079992">
										<SimplePredicate field="PC3" operator="greaterOrEqual" value="2.753821"/>
										<Node score="0.48774">
											<SimplePredicate field="MonthsSinceLastTest" operator="greaterOrEqual" value="11.5"/>
											<Node score="-0.16522233">
												<SimplePredicate field="PC8" operator="greaterOrEqual" value="-0.08045922"/>
												<Node score="0.042856097">
													<SimplePredicate field="GenderFemale" operator="greaterOrEqual" value="0.5"/>
												</Node>
											</Node>
											<Node score="-0.21171415">
												<SimplePredicate field="EntryPointPEDS" operator="greaterOrEqual" value="0.5"/>
											</Node>
										</Node>
										<Node score="-0.06300058">
											<SimplePredicate field="MaritalStatusDivorced" operator="lessThan" value="0.5"/>
											<Node score="-0.28043705">
												<SimplePredicate field="MonthsSinceLastTest" operator="greaterOrEqual" value="1.5"/>
											</Node>
										</Node>
										<Node score="-0.0667958">
											<SimplePredicate field="month_of_test7" operator="greaterOrEqual" value="0.5"/>
										</Node>
									</Node>
									<Node score="0.13770011">
										<SimplePredicate field="month_of_test9" operator="greaterOrEqual" value="0.5"/>
										<Node score="0.030742934">
											<SimplePredicate field="EntryPointMTC" operator="lessThan" value="0.5"/>
											<Node score="-0.23772995">
												<SimplePredicate field="PC5" operator="greaterOrEqual" value="0.1483799"/>
											</Node>
										</Node>
										<Node score="-0.13158268">
											<SimplePredicate field="MaritalStatusMinor" operator="lessThan" value="0.5"/>
										</Node>
									</Node>
									<Node score="-0.031021284">
										<SimplePredicate field="AgeAtTest" operator="greaterOrEqual" value="12.5"/>
										<Node score="0.04261131">
											<SimplePredicate field="PC6" operator="greaterOrEqual" value="-0.08127628"/>
										</Node>
									</Node>
									<Node score="-0.24875356">
										<SimplePredicate field="AgeAtTest" operator="greaterOrEqual" value="3.5"/>
									</Node>
								</Node>
							</TreeModel>
						</Segment>
						<Segment id="11">
							<True/>
							<TreeModel functionName="regression" noTrueChildStrategy="returnLastPrediction" x-mathContext="float">
								<MiningSchema>
									<MiningField name="PC1"/>
									<MiningField name="PC2"/>
									<MiningField name="PC3"/>
									<MiningField name="PC4"/>
									<MiningField name="PC5"/>
									<MiningField name="PC6"/>
									<MiningField name="PC7"/>
									<MiningField name="PC8"/>
									<MiningField name="PC10"/>
									<MiningField name="AgeAtTest"/>
									<MiningField name="KeyPopulationTypeGP"/>
									<MiningField name="MaritalStatusMinor"/>
									<MiningField name="GenderFemale"/>
									<MiningField name="EverTestedForHIVNo"/>
									<MiningField name="MonthsSinceLastTest"/>
									<MiningField name="ClientTestedAsCouple"/>
									<MiningField name="EntryPointOPD"/>
									<MiningField name="EntryPointPEDS"/>
									<MiningField name="TestingStrategyMOBILE"/>
									<MiningField name="TBScreeningPresumed TB"/>
									<MiningField name="ClientSelfTestedYes"/>
									<MiningField name="month_of_test12"/>
									<MiningField name="month_of_test4"/>
									<MiningField name="month_of_test6"/>
									<MiningField name="month_of_test2"/>
									<MiningField name="month_of_test5"/>
									<MiningField name="month_of_test8"/>
									<MiningField name="dayofweek5"/>
									<MiningField name="dayofweek2"/>
									<MiningField name="dayofweek7"/>
								</MiningSchema>
								<Node score="-0.14000165">
									<True/>
									<Node score="-0.29155415">
										<SimplePredicate field="TestingStrategyMOBILE" operator="greaterOrEqual" value="0.5"/>
										<Node score="-0.2673725">
											<SimplePredicate field="MonthsSinceLastTest" operator="lessThan" value="12.5"/>
											<Node score="-0.17431381">
												<SimplePredicate field="MaritalStatusMinor" operator="lessThan" value="0.5"/>
												<Node score="-0.2250539">
													<SimplePredicate field="PC5" operator="greaterOrEqual" value="1.7046566"/>
													<Node score="0.03608181">
														<SimplePredicate field="KeyPopulationTypeGP" operator="greaterOrEqual" value="0.5"/>
														<Node score="0.32475713">
															<SimplePredicate field="AgeAtTest" operator="greaterOrEqual" value="29.0"/>
														</Node>
													</Node>
													<Node score="0.13117468">
														<SimplePredicate field="PC1" operator="greaterOrEqual" value="6.500794"/>
													</Node>
												</Node>
												<Node score="-0.25167757">
													<SimplePredicate field="MonthsSinceLastTest" operator="lessThan" value="8.5"/>
												</Node>
												<Node score="0.04958353">
													<SimplePredicate field="GenderFemale" operator="greaterOrEqual" value="0.5"/>
												</Node>
											</Node>
											<Node score="-0.17469652">
												<SimplePredicate field="TBScreeningPresumed TB" operator="greaterOrEqual" value="0.5"/>
												<Node score="0.20633744">
													<SimplePredicate field="dayofweek2" operator="greaterOrEqual" value="0.5"/>
													<Node score="-0.19683477">
														<SimplePredicate field="MonthsSinceLastTest" operator="lessThan" value="8.5"/>
													</Node>
												</Node>
												<Node score="0.024362626">
													<SimplePredicate field="dayofweek7" operator="greaterOrEqual" value="0.5"/>
												</Node>
											</Node>
											<Node score="-0.1778217">
												<SimplePredicate field="ClientTestedAsCouple" operator="greaterOrEqual" value="0.5"/>
												<Node score="0.120229386">
													<SimplePredicate field="MonthsSinceLastTest" operator="lessThan" value="9.5"/>
												</Node>
											</Node>
											<Node score="0.0817033">
												<SimplePredicate field="month_of_test4" operator="greaterOrEqual" value="0.5"/>
											</Node>
										</Node>
										<Node score="-0.2949286">
											<SimplePredicate field="AgeAtTest" operator="greaterOrEqual" value="24.5"/>
											<Node score="0.05040085">
												<SimplePredicate field="ClientSelfTestedYes" operator="lessThan" value="0.5"/>
												<Node score="-0.23915294">
													<SimplePredicate field="AgeAtTest" operator="greaterOrEqual" value="49.5"/>
												</Node>
												<Node score="0.45339763">
