<?xml version="1.0" encoding="UTF-8" standalone="yes"?>
<PMML xmlns="http://www.dmg.org/PMML-4_4" xmlns:data="http://jpmml.org/jpmml-model/InlineTable" version="4.4">
	<Header>
		<Application name="JPMML-R" version="1.4.4"/>
		<Timestamp>2021-11-04T21:48:16Z</Timestamp>
	</Header>
	<DataDictionary>
		<DataField name="_target" optype="categorical" dataType="integer">
			<Value value="0"/>
			<Value value="1"/>
		</DataField>
		<DataField name="AgeAtTest" optype="continuous" dataType="float"/>
		<DataField name="MonthsSinceLastTest" optype="continuous" dataType="float"/>
		<DataField name="Gender.Male" optype="continuous" dataType="float"/>
		<DataField name="KeyPopulationType.GP" optype="continuous" dataType="float"/>
		<DataField name="KeyPopulationType.SW" optype="continuous" dataType="float"/>
		<DataField name="MaritalStatus.Married" optype="continuous" dataType="float"/>
		<DataField name="MaritalStatus.Divorced" optype="continuous" dataType="float"/>
		<DataField name="MaritalStatus.Polygamous" optype="continuous" dataType="float"/>
		<DataField name="MaritalStatus.Widowed" optype="continuous" dataType="float"/>
		<DataField name="MaritalStatus.Minor" optype="continuous" dataType="float"/>
		<DataField name="PatientDisabled.Not.Disabled" optype="continuous" dataType="float"/>
		<DataField name="EverTestedForHIV.Yes" optype="continuous" dataType="float"/>
		<DataField name="ClientTestedAs.Individual" optype="continuous" dataType="float"/>
		<DataField name="EntryPoint.VCT" optype="continuous" dataType="float"/>
		<DataField name="EntryPoint.OPD" optype="continuous" dataType="float"/>
		<DataField name="EntryPoint.MTC" optype="continuous" dataType="float"/>
		<DataField name="EntryPoint.IPD" optype="continuous" dataType="float"/>
		<DataField name="EntryPoint.MOBILE" optype="continuous" dataType="float"/>
		<DataField name="EntryPoint.Other" optype="continuous" dataType="float"/>
		<DataField name="EntryPoint.HB" optype="continuous" dataType="float"/>
		<DataField name="EntryPoint.PEDS" optype="continuous" dataType="float"/>
		<DataField name="TestingStrategy.VCT" optype="continuous" dataType="float"/>
		<DataField name="TestingStrategy.HB" optype="continuous" dataType="float"/>
		<DataField name="TestingStrategy.MOBILE" optype="continuous" dataType="float"/>
		<DataField name="TestingStrategy.HP" optype="continuous" dataType="float"/>
		<DataField name="TestingStrategy.NP" optype="continuous" dataType="float"/>
		<DataField name="TBScreening.No.Presumed.TB" optype="continuous" dataType="float"/>
		<DataField name="ClientSelfTested.No" optype="continuous" dataType="float"/>
	</DataDictionary>
	<MiningModel functionName="classification" algorithmName="XGBoost (GBTree)" x-mathContext="float">
		<MiningSchema>
			<MiningField name="_target" usageType="target"/>
			<MiningField name="AgeAtTest"/>
			<MiningField name="MonthsSinceLastTest"/>
			<MiningField name="Gender.Male"/>
			<MiningField name="KeyPopulationType.GP"/>
			<MiningField name="KeyPopulationType.SW"/>
			<MiningField name="MaritalStatus.Married"/>
			<MiningField name="MaritalStatus.Divorced"/>
			<MiningField name="MaritalStatus.Polygamous"/>
			<MiningField name="MaritalStatus.Widowed"/>
			<MiningField name="MaritalStatus.Minor"/>
			<MiningField name="PatientDisabled.Not.Disabled"/>
			<MiningField name="EverTestedForHIV.Yes"/>
			<MiningField name="ClientTestedAs.Individual"/>
			<MiningField name="EntryPoint.VCT"/>
			<MiningField name="EntryPoint.OPD"/>
			<MiningField name="EntryPoint.MTC"/>
			<MiningField name="EntryPoint.IPD"/>
			<MiningField name="EntryPoint.MOBILE"/>
			<MiningField name="EntryPoint.Other"/>
			<MiningField name="EntryPoint.HB"/>
			<MiningField name="EntryPoint.PEDS"/>
			<MiningField name="TestingStrategy.VCT"/>
			<MiningField name="TestingStrategy.HB"/>
			<MiningField name="TestingStrategy.MOBILE"/>
			<MiningField name="TestingStrategy.HP"/>
			<MiningField name="TestingStrategy.NP"/>
			<MiningField name="TBScreening.No.Presumed.TB"/>
			<MiningField name="ClientSelfTested.No"/>
		</MiningSchema>
		<Segmentation multipleModelMethod="modelChain" missingPredictionTreatment="returnMissing">
			<Segment id="1">
				<True/>
				<MiningModel functionName="regression" x-mathContext="float">
					<MiningSchema>
						<MiningField name="AgeAtTest"/>
						<MiningField name="MonthsSinceLastTest"/>
						<MiningField name="Gender.Male"/>
						<MiningField name="KeyPopulationType.GP"/>
						<MiningField name="KeyPopulationType.SW"/>
						<MiningField name="MaritalStatus.Married"/>
						<MiningField name="MaritalStatus.Divorced"/>
						<MiningField name="MaritalStatus.Polygamous"/>
						<MiningField name="MaritalStatus.Widowed"/>
						<MiningField name="MaritalStatus.Minor"/>
						<MiningField name="PatientDisabled.Not.Disabled"/>
						<MiningField name="EverTestedForHIV.Yes"/>
						<MiningField name="ClientTestedAs.Individual"/>
						<MiningField name="EntryPoint.VCT"/>
						<MiningField name="EntryPoint.OPD"/>
						<MiningField name="EntryPoint.MTC"/>
						<MiningField name="EntryPoint.IPD"/>
						<MiningField name="EntryPoint.MOBILE"/>
						<MiningField name="EntryPoint.Other"/>
						<MiningField name="EntryPoint.HB"/>
						<MiningField name="EntryPoint.PEDS"/>
						<MiningField name="TestingStrategy.VCT"/>
						<MiningField name="TestingStrategy.HB"/>
						<MiningField name="TestingStrategy.MOBILE"/>
						<MiningField name="TestingStrategy.HP"/>
						<MiningField name="TestingStrategy.NP"/>
						<MiningField name="TBScreening.No.Presumed.TB"/>
						<MiningField name="ClientSelfTested.No"/>
					</MiningSchema>
					<Output>
						<OutputField name="xgbValue" optype="continuous" dataType="float" isFinalResult="false"/>
					</Output>
					<Segmentation multipleModelMethod="sum">
						<Segment id="1">
							<True/>
							<TreeModel functionName="regression" noTrueChildStrategy="returnLastPrediction" x-mathContext="float">
								<MiningSchema>
									<MiningField name="AgeAtTest"/>
									<MiningField name="MonthsSinceLastTest"/>
									<MiningField name="Gender.Male"/>
									<MiningField name="MaritalStatus.Married"/>
									<MiningField name="MaritalStatus.Divorced"/>
									<MiningField name="MaritalStatus.Polygamous"/>
									<MiningField name="MaritalStatus.Widowed"/>
									<MiningField name="MaritalStatus.Minor"/>
									<MiningField name="EntryPoint.VCT"/>
									<MiningField name="EntryPoint.MTC"/>
									<MiningField name="EntryPoint.MOBILE"/>
									<MiningField name="TestingStrategy.VCT"/>
									<MiningField name="TestingStrategy.HB"/>
									<MiningField name="TestingStrategy.MOBILE"/>
									<MiningField name="TestingStrategy.HP"/>
									<MiningField name="TBScreening.No.Presumed.TB"/>
								</MiningSchema>
								<Node score="-0.55172414">
									<True/>
									<Node score="-0.40327868">
										<SimplePredicate field="TestingStrategy.VCT" operator="lessThan" value="2.000001"/>
										<Node score="0.36">
											<SimplePredicate field="MaritalStatus.Divorced" operator="greaterOrEqual" value="0.5"/>
											<Node score="-0.0">
												<SimplePredicate field="EntryPoint.MTC" operator="lessThan" value="0.5"/>
												<Node score="-0.0">
													<SimplePredicate field="AgeAtTest" operator="greaterOrEqual" value="31.5"/>
													<Node score="-0.20000002">
														<SimplePredicate field="Gender.Male" operator="greaterOrEqual" value="0.5"/>
														<Node score="0.3">
															<SimplePredicate field="MonthsSinceLastTest" operator="lessThan" value="4.0"/>
														</Node>
													</Node>
													<Node score="0.34285718">
														<SimplePredicate field="EntryPoint.VCT" operator="lessThan" value="0.5"/>
													</Node>
												</Node>
												<Node score="-0.13846155">
													<SimplePredicate field="TestingStrategy.HP" operator="lessThan" value="0.5"/>
													<Node score="-0.39130437">
														<SimplePredicate field="TBScreening.No.Presumed.TB" operator="lessThan" value="2.000001"/>
													</Node>
												</Node>
												<Node score="0.20000002">
													<SimplePredicate field="AgeAtTest" operator="greaterOrEqual" value="24.5"/>
												</Node>
											</Node>
										</Node>
										<Node score="-0.5453238">
											<SimplePredicate field="TBScreening.No.Presumed.TB" operator="lessThan" value="0.5"/>
											<Node score="-0.41538465">
												<SimplePredicate field="TestingStrategy.MOBILE" operator="lessThan" value="0.5"/>
												<Node score="-0.47500002">
													<SimplePredicate field="AgeAtTest" operator="greaterOrEqual" value="53.5"/>
													<Node score="-0.15">
														<SimplePredicate field="MonthsSinceLastTest" operator="greaterOrEqual" value="12.5"/>
													</Node>
												</Node>
												<Node score="-0.06486487">
													<SimplePredicate field="AgeAtTest" operator="greaterOrEqual" value="19.5"/>
												</Node>
											</Node>
											<Node score="0.20000002">
												<SimplePredicate field="MonthsSinceLastTest" operator="greaterOrEqual" value="13.5"/>
												<Node score="-0.15">
													<SimplePredicate field="AgeAtTest" operator="greaterOrEqual" value="41.0"/>
												</Node>
											</Node>
											<Node score="0.05454546">
												<SimplePredicate field="MaritalStatus.Married" operator="greaterOrEqual" value="0.5"/>
											</Node>
										</Node>
										<Node score="-0.5505762">
											<SimplePredicate field="TestingStrategy.HB" operator="lessThan" value="0.5"/>
											<Node score="-0.5514034">
												<SimplePredicate field="MaritalStatus.Minor" operator="lessThan" value="0.5"/>
												<Node score="-0.4337478">
													<SimplePredicate field="MonthsSinceLastTest" operator="greaterOrEqual" value="5.5"/>
												</Node>
											</Node>
											<Node score="-0.5845303">
												<SimplePredicate field="MonthsSinceLastTest" operator="lessThan" value="12.5"/>
											</Node>
										</Node>
										<Node score="0.03157895">
											<SimplePredicate field="MaritalStatus.Polygamous" operator="greaterOrEqual" value="0.5"/>
											<Node score="-0.3">
												<SimplePredicate field="Gender.Male" operator="greaterOrEqual" value="0.5"/>
											</Node>
										</Node>
										<Node score="-0.5099196">
											<SimplePredicate field="TBScreening.No.Presumed.TB" operator="lessThan" value="2.000001"/>
										</Node>
									</Node>
									<Node score="0.50476193">
										<SimplePredicate field="EntryPoint.MOBILE" operator="greaterOrEqual" value="0.5"/>
										<Node score="-0.5342466">
											<SimplePredicate field="TBScreening.No.Presumed.TB" operator="greaterOrEqual" value="0.5"/>
											<Node score="0.10552765">
												<SimplePredicate field="AgeAtTest" operator="greaterOrEqual" value="18.5"/>
												<Node score="-0.22325583">
													<SimplePredicate field="Gender.Male" operator="greaterOrEqual" value="0.5"/>
													<Node score="-0.0">
														<SimplePredicate field="AgeAtTest" operator="greaterOrEqual" value="36.5"/>
													</Node>
												</Node>
												<Node score="-0.120000005">
													<SimplePredicate field="MonthsSinceLastTest" operator="greaterOrEqual" value="11.5"/>
												</Node>
											</Node>
										</Node>
									</Node>
									<Node score="0.15">
										<SimplePredicate field="TBScreening.No.Presumed.TB" operator="lessThan" value="0.5"/>
										<Node score="0.375">
											<SimplePredicate field="EntryPoint.MTC" operator="lessThan" value="0.5"/>
										</Node>
										<Node score="-0.0">
											<SimplePredicate field="MonthsSinceLastTest" operator="lessThan" value="11.5"/>
										</Node>
									</Node>
									<Node score="0.3">
										<SimplePredicate field="MaritalStatus.Widowed" operator="greaterOrEqual" value="0.5"/>
										<Node score="-0.3">
											<SimplePredicate field="Gender.Male" operator="greaterOrEqual" value="0.5"/>
											<Node score="-0.06666667">
												<SimplePredicate field="MonthsSinceLastTest" operator="lessThan" value="144.0"/>
											</Node>
										</Node>
										<Node score="-0.16363637">
											<SimplePredicate field="AgeAtTest" operator="greaterOrEqual" value="51.0"/>
										</Node>
									</Node>
									<Node score="-0.3060893">
										<SimplePredicate field="AgeAtTest" operator="greaterOrEqual" value="15.5"/>
										<Node score="-0.4403548">
											<SimplePredicate field="TBScreening.No.Presumed.TB" operator="lessThan" value="2.000001"/>
										</Node>
									</Node>
								</Node>
							</TreeModel>
						</Segment>
						<Segment id="2">
							<True/>
							<TreeModel functionName="regression" noTrueChildStrategy="returnLastPrediction" x-mathContext="float">
								<MiningSchema>
									<MiningField name="AgeAtTest"/>
									<MiningField name="MonthsSinceLastTest"/>
									<MiningField name="Gender.Male"/>
									<MiningField name="MaritalStatus.Married"/>
									<MiningField name="MaritalStatus.Divorced"/>
									<MiningField name="MaritalStatus.Minor"/>
									<MiningField name="PatientDisabled.Not.Disabled"/>
									<MiningField name="EntryPoint.MTC"/>
									<MiningField name="EntryPoint.MOBILE"/>
									<MiningField name="TestingStrategy.VCT"/>
									<MiningField name="TestingStrategy.HB"/>
									<MiningField name="TestingStrategy.HP"/>
									<MiningField name="TBScreening.No.Presumed.TB"/>
								</MiningSchema>
								<Node score="-0.42236456">
									<True/>
									<Node score="-0.29896376">
										<SimplePredicate field="TestingStrategy.VCT" operator="lessThan" value="2.000001"/>
										<Node score="0.28166714">
											<SimplePredicate field="MaritalStatus.Divorced" operator="greaterOrEqual" value="0.5"/>
											<Node score="-0.36307037">
												<SimplePredicate field="EntryPoint.MTC" operator="lessThan" value="0.5"/>
												<Node score="0.036203105">
													<SimplePredicate field="AgeAtTest" operator="greaterOrEqual" value="20.5"/>
													<Node score="0.117019095">
														<SimplePredicate field="TBScreening.No.Presumed.TB" operator="greaterOrEqual" value="0.5"/>
														<Node score="-0.19458507">
															<SimplePredicate field="TestingStrategy.HP" operator="lessThan" value="0.5"/>
														</Node>
													</Node>
													<Node score="0.32455933">
														<SimplePredicate field="TestingStrategy.VCT" operator="lessThan" value="0.5"/>
													</Node>
												</Node>
											</Node>
										</Node>
										<Node score="-0.24354553">
											<SimplePredicate field="TBScreening.No.Presumed.TB" operator="lessThan" value="0.5"/>
											<Node score="-0.20874111">
												<SimplePredicate field="MonthsSinceLastTest" operator="greaterOrEqual" value="13.5"/>
												<Node score="-0.30934322">
													<SimplePredicate field="AgeAtTest" operator="greaterOrEqual" value="61.0"/>
													<Node score="-0.041843724">
														<SimplePredicate field="MonthsSinceLastTest" operator="lessThan" value="26.0"/>
													</Node>
												</Node>
												<Node score="0.24703741">
													<SimplePredicate field="AgeAtTest" operator="greaterOrEqual" value="21.5"/>
												</Node>
											</Node>
											<Node score="-0.16402784">
												<SimplePredicate field="MaritalStatus.Married" operator="greaterOrEqual" value="0.5"/>
												<Node score="0.14900827">
													<SimplePredicate field="PatientDisabled.Not.Disabled" operator="greaterOrEqual" value="0.5"/>
												</Node>
											</Node>
											<Node score="-0.41639724">
												<SimplePredicate field="EntryPoint.MOBILE" operator="greaterOrEqual" value="0.5"/>
											</Node>
										</Node>
										<Node score="-0.41984072">
											<SimplePredicate field="TestingStrategy.HB" operator="lessThan" value="0.5"/>
											<Node score="-0.42068347">
												<SimplePredicate field="MaritalStatus.Minor" operator="lessThan" value="0.5"/>
												<Node score="-0.32107234">
													<SimplePredicate field="MonthsSinceLastTest" operator="greaterOrEqual" value="5.5"/>
												</Node>
											</Node>
											<Node score="-0.4504166">
												<SimplePredicate field="MonthsSinceLastTest" operator="lessThan" value="12.5"/>
											</Node>
										</Node>
										<Node score="-0.16833006">
											<SimplePredicate field="AgeAtTest" operator="greaterOrEqual" value="58.5"/>
											<Node score="0.2933427">
												<SimplePredicate field="MonthsSinceLastTest" operator="greaterOrEqual" value="14.5"/>
											</Node>
										</Node>
										<Node score="-0.3943009">
											<SimplePredicate field="Gender.Male" operator="greaterOrEqual" value="0.5"/>
										</Node>
									</Node>
									<Node score="0.3880854">
										<SimplePredicate field="EntryPoint.MOBILE" operator="greaterOrEqual" value="0.5"/>
										<Node score="-0.42707092">
											<SimplePredicate field="TBScreening.No.Presumed.TB" operator="greaterOrEqual" value="0.5"/>
											<Node score="-0.103367895">
												<SimplePredicate field="AgeAtTest" operator="greaterOrEqual" value="18.5"/>
												<Node score="0.16154885">
													<SimplePredicate field="MonthsSinceLastTest" operator="lessThan" value="11.5"/>
													<Node score="-0.034690417">
														<SimplePredicate field="MonthsSinceLastTest" operator="lessThan" value="8.5"/>
													</Node>
												</Node>
												<Node score="-0.31539494">
													<SimplePredicate field="AgeAtTest" operator="greaterOrEqual" value="36.5"/>
												</Node>
											</Node>
											<Node score="-0.11746147">
												<SimplePredicate field="MaritalStatus.Married" operator="greaterOrEqual" value="0.5"/>
											</Node>
										</Node>
									</Node>
									<Node score="0.017511802">
										<SimplePredicate field="TBScreening.No.Presumed.TB" operator="lessThan" value="0.5"/>
										<Node score="0.08305078">
											<SimplePredicate field="AgeAtTest" operator="greaterOrEqual" value="27.0"/>
											<Node score="0.3675817">
												<SimplePredicate field="MaritalStatus.Married" operator="lessThan" value="2.000001"/>
											</Node>
										</Node>
									</Node>
									<Node score="-0.22818273">
										<SimplePredicate field="AgeAtTest" operator="greaterOrEqual" value="15.5"/>
										<Node score="-0.090645954">
											<SimplePredicate field="MaritalStatus.Married" operator="lessThan" value="0.5"/>
											<Node score="0.28166035">
												<SimplePredicate field="MonthsSinceLastTest" operator="greaterOrEqual" value="13.5"/>
											</Node>
										</Node>
										<Node score="-0.34366542">
											<SimplePredicate field="TBScreening.No.Presumed.TB" operator="lessThan" value="2.000001"/>
										</Node>
									</Node>
								</Node>
							</TreeModel>
						</Segment>
						<Segment id="3">
							<True/>
							<TreeModel functionName="regression" noTrueChildStrategy="returnLastPrediction" x-mathContext="float">
								<MiningSchema>
									<MiningField name="AgeAtTest"/>
									<MiningField name="MonthsSinceLastTest"/>
									<MiningField name="Gender.Male"/>
									<MiningField name="MaritalStatus.Married"/>
									<MiningField name="MaritalStatus.Divorced"/>
									<MiningField name="MaritalStatus.Minor"/>
									<MiningField name="PatientDisabled.Not.Disabled"/>
									<MiningField name="EntryPoint.VCT"/>
									<MiningField name="EntryPoint.MTC"/>
									<MiningField name="EntryPoint.HB"/>
									<MiningField name="TestingStrategy.HB"/>
									<MiningField name="TestingStrategy.MOBILE"/>
									<MiningField name="TBScreening.No.Presumed.TB"/>
								</MiningSchema>
								<Node score="-0.074966215">
									<True/>
									<Node score="-0.19799867">
										<SimplePredicate field="TestingStrategy.HB" operator="lessThan" value="0.5"/>
										<Node score="-0.27921614">
											<SimplePredicate field="MaritalStatus.Divorced" operator="greaterOrEqual" value="0.5"/>
											<Node score="0.021750368">
												<SimplePredicate field="AgeAtTest" operator="greaterOrEqual" value="40.5"/>
												<Node score="0.32976544">
													<SimplePredicate field="MonthsSinceLastTest" operator="lessThan" value="20.0"/>
												</Node>
											</Node>
											<Node score="-0.28190586">
												<SimplePredicate field="TestingStrategy.MOBILE" operator="lessThan" value="0.5"/>
												<Node score="0.11000872">
													<SimplePredicate field="AgeAtTest" operator="greaterOrEqual" value="20.5"/>
													<Node score="-0.04783031">
														<SimplePredicate field="AgeAtTest" operator="greaterOrEqual" value="27.5"/>
													</Node>
												</Node>
											</Node>
										</Node>
										<Node score="-0.3487259">
											<SimplePredicate field="TBScreening.No.Presumed.TB" operator="lessThan" value="0.5"/>
											<Node score="-0.15907438">
												<SimplePredicate field="TestingStrategy.MOBILE" operator="lessThan" value="0.5"/>
												<Node score="-0.33396015">
													<SimplePredicate field="AgeAtTest" operator="greaterOrEqual" value="56.5"/>
													<Node score="-0.12712291">
														<SimplePredicate field="MonthsSinceLastTest" operator="greaterOrEqual" value="12.5"/>
													</Node>
												</Node>
												<Node score="0.05276406">
													<SimplePredicate field="AgeAtTest" operator="greaterOrEqual" value="32.5"/>
												</Node>
											</Node>
											<Node score="0.08221551">
												<SimplePredicate field="MonthsSinceLastTest" operator="greaterOrEqual" value="13.5"/>
												<Node score="-0.08525687">
													<SimplePredicate field="AgeAtTest" operator="greaterOrEqual" value="39.5"/>
												</Node>
											</Node>
											<Node score="0.041554">
												<SimplePredicate field="MaritalStatus.Married" operator="greaterOrEqual" value="0.5"/>
											</Node>
										</Node>
										<Node score="-0.36488923">
											<SimplePredicate field="MaritalStatus.Minor" operator="lessThan" value="0.5"/>
											<Node score="-0.28949118">
												<SimplePredicate field="AgeAtTest" operator="greaterOrEqual" value="27.5"/>
												<Node score="-0.099374436">
													<SimplePredicate field="MonthsSinceLastTest" operator="greaterOrEqual" value="13.5"/>
												</Node>
											</Node>
											<Node score="0.014316109">
												<SimplePredicate field="MonthsSinceLastTest" operator="greaterOrEqual" value="25.0"/>
											</Node>
										</Node>
										<Node score="-0.39998543">
											<SimplePredicate field="MonthsSinceLastTest" operator="lessThan" value="12.5"/>
											<Node score="-0.37191418">
												<SimplePredicate field="TestingStrategy.MOBILE" operator="lessThan" value="0.5"/>
											</Node>
										</Node>
										<Node score="-0.35902902">
											<SimplePredicate field="TestingStrategy.MOBILE" operator="lessThan" value="0.5"/>
										</Node>
									</Node>
									<Node score="0.17788923">
										<SimplePredicate field="EntryPoint.HB" operator="lessThan" value="0.5"/>
										<Node score="-0.010639803">
											<SimplePredicate field="AgeAtTest" operator="greaterOrEqual" value="19.5"/>
											<Node score="-0.062967">
												<SimplePredicate field="TBScreening.No.Presumed.TB" operator="lessThan" value="0.5"/>
												<Node score="0.37737522">
													<SimplePredicate field="MonthsSinceLastTest" operator="lessThan" value="8.5"/>
												</Node>
												<Node score="0.3006996">
													<SimplePredicate field="MonthsSinceLastTest" operator="greaterOrEqual" value="9.5"/>
												</Node>
											</Node>
											<Node score="-0.2898076">
												<SimplePredicate field="Gender.Male" operator="greaterOrEqual" value="0.5"/>
												<Node score="-0.09835174">
													<SimplePredicate field="MonthsSinceLastTest" operator="lessThan" value="144.0"/>
												</Node>
											</Node>
											<Node score="0.3436734">
												<SimplePredicate field="AgeAtTest" operator="greaterOrEqual" value="49.5"/>
											</Node>
										</Node>
										<Node score="-0.3765491">
											<SimplePredicate field="EntryPoint.MTC" operator="lessThan" value="0.5"/>
											<Node score="-0.2587159">
												<SimplePredicate field="MaritalStatus.Minor" operator="lessThan" value="0.5"/>
												<Node score="-0.08633475">
													<SimplePredicate field="MonthsSinceLastTest" operator="lessThan" value="1.5"/>
												</Node>
											</Node>
											<Node score="-0.17588396">
												<SimplePredicate field="AgeAtTest" operator="greaterOrEqual" value="18.5"/>
											</Node>
										</Node>
										<Node score="-0.22857125">
											<SimplePredicate field="TBScreening.No.Presumed.TB" operator="greaterOrEqual" value="0.5"/>
										</Node>
									</Node>
									<Node score="-0.30738124">
										<SimplePredicate field="TBScreening.No.Presumed.TB" operator="greaterOrEqual" value="0.5"/>
										<Node score="-0.26107466">
											<SimplePredicate field="MaritalStatus.Minor" operator="lessThan" value="0.5"/>
											<Node score="-0.01044589">
												<SimplePredicate field="PatientDisabled.Not.Disabled" operator="greaterOrEqual" value="0.5"/>
												<Node score="0.2410146">
													<SimplePredicate field="EntryPoint.VCT" operator="lessThan" value="1.0E-6"/>
												</Node>
											</Node>
											<Node score="-0.39420044">
												<SimplePredicate field="MonthsSinceLastTest" operator="lessThan" value="11.5"/>
											</Node>
										</Node>
										<Node score="0.25898212">
											<SimplePredicate field="AgeAtTest" operator="greaterOrEqual" value="58.5"/>
											<Node score="-0.17402309">
												<SimplePredicate field="MonthsSinceLastTest" operator="lessThan" value="14.5"/>
											</Node>
										</Node>
										<Node score="-0.3874811">
											<SimplePredicate field="Gender.Male" operator="greaterOrEqual" value="0.5"/>
										</Node>
									</Node>
									<Node score="-0.15730266">
										<SimplePredicate field="MaritalStatus.Married" operator="greaterOrEqual" value="0.5"/>
										<Node score="0.25493512">
											<SimplePredicate field="TBScreening.No.Presumed.TB" operator="lessThan" value="1.0E-6"/>
										</Node>
										<Node score="-0.3564684">
											<SimplePredicate field="AgeAtTest" operator="greaterOrEqual" value="3.5"/>
										</Node>
									</Node>
									<Node score="-0.33035648">
										<SimplePredicate field="MonthsSinceLastTest" operator="lessThan" value="70.0"/>
										<Node score="0.18072784">
											<SimplePredicate field="AgeAtTest" operator="greaterOrEqual" value="11.0"/>
										</Node>
									</Node>
									<Node score="-0.23394676">
										<SimplePredicate field="Gender.Male" operator="greaterOrEqual" value="0.5"/>
									</Node>
								</Node>
							</TreeModel>
						</Segment>
						<Segment id="4">
							<True/>
							<TreeModel functionName="regression" noTrueChildStrategy="returnLastPrediction" x-mathContext="float">
								<MiningSchema>
									<MiningField name="AgeAtTest"/>
									<MiningField name="MonthsSinceLastTest"/>
									<MiningField name="Gender.Male"/>
									<MiningField name="MaritalStatus.Married"/>
									<MiningField name="MaritalStatus.Divorced"/>
									<MiningField name="MaritalStatus.Polygamous"/>
									<MiningField name="MaritalStatus.Widowed"/>
									<MiningField name="MaritalStatus.Minor"/>
									<MiningField name="PatientDisabled.Not.Disabled"/>
									<MiningField name="ClientTestedAs.Individual"/>
									<MiningField name="EntryPoint.VCT"/>
									<MiningField name="EntryPoint.MTC"/>
									<MiningField name="EntryPoint.MOBILE"/>
									<MiningField name="EntryPoint.HB"/>
									<MiningField name="TestingStrategy.HB"/>
									<MiningField name="TestingStrategy.MOBILE"/>
									<MiningField name="TestingStrategy.HP"/>
									<MiningField name="TBScreening.No.Presumed.TB"/>
								</MiningSchema>
								<Node score="-0.2631163">
									<True/>
									<Node score="0.00691774">
										<SimplePredicate field="TestingStrategy.HB" operator="lessThan" value="0.5"/>
										<Node score="-0.24509533">
											<SimplePredicate field="MaritalStatus.Minor" operator="lessThan" value="0.5"/>
											<Node score="0.14817838">
												<SimplePredicate field="AgeAtTest" operator="greaterOrEqual" value="24.5"/>
												<Node score="-0.26964635">
													<SimplePredicate field="MaritalStatus.Divorced" operator="lessThan" value="0.5"/>
													<Node score="0.19463712">
														<SimplePredicate field="MonthsSinceLastTest" operator="greaterOrEqual" value="6.5"/>
														<Node score="-0.16349232">
															<SimplePredicate field="MaritalStatus.Widowed" operator="lessThan" value="0.5"/>
														</Node>
													</Node>
													<Node score="-0.019605389">
														<SimplePredicate field="TBScreening.No.Presumed.TB" operator="lessThan" value="0.5"/>
													</Node>
												</Node>
												<Node score="0.22586681">
													<SimplePredicate field="AgeAtTest" operator="greaterOrEqual" value="37.5"/>
													<Node score="0.0060805576">
														<SimplePredicate field="EntryPoint.VCT" operator="greaterOrEqual" value="0.5"/>
													</Node>
												</Node>
												<Node score="-0.11144065">
													<SimplePredicate field="TestingStrategy.HP" operator="lessThan" value="0.5"/>
												</Node>
											</Node>
											<Node score="-0.34826833">
												<SimplePredicate field="MaritalStatus.Divorced" operator="lessThan" value="0.5"/>
												<Node score="-0.3143026">
													<SimplePredicate field="TBScreening.No.Presumed.TB" operator="lessThan" value="2.000001"/>
													<Node score="-0.1983854">
														<SimplePredicate field="PatientDisabled.Not.Disabled" operator="greaterOrEqual" value="0.5"/>
													</Node>
												</Node>
												<Node score="-0.22748564">
													<SimplePredicate field="EntryPoint.MTC" operator="greaterOrEqual" value="0.5"/>
												</Node>
											</Node>
											<Node score="0.24344276">
												<SimplePredicate field="AgeAtTest" operator="greaterOrEqual" value="20.5"/>
												<Node score="-0.19465424">
													<SimplePredicate field="TBScreening.No.Presumed.TB" operator="greaterOrEqual" value="0.5"/>
												</Node>
											</Node>
										</Node>
										<Node score="-0.36351758">
											<SimplePredicate field="TBScreening.No.Presumed.TB" operator="greaterOrEqual" value="0.5"/>
											<Node score="-0.28416187">
												<SimplePredicate field="MonthsSinceLastTest" operator="greaterOrEqual" value="12.5"/>
												<Node score="0.0420866">
													<SimplePredicate field="TestingStrategy.MOBILE" operator="lessThan" value="0.5"/>
													<Node score="-0.31609">
														<SimplePredicate field="MonthsSinceLastTest" operator="lessThan" value="66.0"/>
													</Node>
												</Node>
												<Node score="0.086288854">
													<SimplePredicate field="AgeAtTest" operator="greaterOrEqual" value="25.5"/>
												</Node>
											</Node>
											<Node score="0.23861569">
												<SimplePredicate field="EntryPoint.HB" operator="greaterOrEqual" value="0.5"/>
												<Node score="-0.21194544">
													<SimplePredicate field="Gender.Male" operator="greaterOrEqual" value="0.5"/>
												</Node>
											</Node>
											<Node score="-0.33677313">
												<SimplePredicate field="TestingStrategy.MOBILE" operator="lessThan" value="0.5"/>
											</Node>
										</Node>
										<Node score="-0.2366011">
											<SimplePredicate field="MonthsSinceLastTest" operator="greaterOrEqual" value="12.5"/>
											<Node score="0.17874509">
												<SimplePredicate field="MonthsSinceLastTest" operator="lessThan" value="18.5"/>
												<Node score="-0.09660628">
													<SimplePredicate field="MonthsSinceLastTest" operator="lessThan" value="13.5"/>
												</Node>
											</Node>
											<Node score="0.02170176">
												<SimplePredicate field="Gender.Male" operator="greaterOrEqual" value="0.5"/>
											</Node>
										</Node>
										<Node score="0.045331877">
											<SimplePredicate field="EntryPoint.MTC" operator="greaterOrEqual" value="0.5"/>
											<Node score="-0.21113005">
												<SimplePredicate field="AgeAtTest" operator="greaterOrEqual" value="25.5"/>
											</Node>
										</Node>
										<Node score="-0.30029896">
											<SimplePredicate field="AgeAtTest" operator="greaterOrEqual" value="3.5"/>
										</Node>
									</Node>
									<Node score="-0.31989613">
										<SimplePredicate field="EntryPoint.MOBILE" operator="greaterOrEqual" value="0.5"/>
										<Node score="0.33476102">
											<SimplePredicate field="AgeAtTest" operator="greaterOrEqual" value="18.5"/>
											<Node score="0.37490273">
												<SimplePredicate field="TBScreening.No.Presumed.TB" operator="greaterOrEqual" value="0.5"/>
												<Node score="-0.1467967">
													<SimplePredicate field="ClientTestedAs.Individual" operator="greaterOrEqual" value="0.5"/>
													<Node score="0.022905478">
														<SimplePredicate field="MonthsSinceLastTest" operator="lessThan" value="11.5"/>
													</Node>
												</Node>
											</Node>
											<Node score="0.2397592">
												<SimplePredicate field="MonthsSinceLastTest" operator="greaterOrEqual" value="8.5"/>
												<Node score="-0.070235915">
													<SimplePredicate field="MonthsSinceLastTest" operator="lessThan" value="9.5"/>
												</Node>
											</Node>
										</Node>
										<Node score="-0.079024084">
											<SimplePredicate field="MaritalStatus.Married" operator="greaterOrEqual" value="0.5"/>
										</Node>
									</Node>
									<Node score="-0.14132893">
										<SimplePredicate field="AgeAtTest" operator="greaterOrEqual" value="15.5"/>
										<Node score="-0.02173048">
											<SimplePredicate field="MaritalStatus.Married" operator="lessThan" value="0.5"/>
											<Node score="-0.1872563">
												<SimplePredicate field="Gender.Male" operator="greaterOrEqual" value="0.5"/>
												<Node score="-0.009672155">
													<SimplePredicate field="TBScreening.No.Presumed.TB" operator="lessThan" value="2.000001"/>
												</Node>
											</Node>
											<Node score="0.23313937">
												<SimplePredicate field="MaritalStatus.Polygamous" operator="lessThan" value="0.5"/>
											</Node>
										</Node>
										<Node score="-0.22118895">
											<SimplePredicate field="MonthsSinceLastTest" operator="lessThan" value="1.5"/>
											<Node score="0.04846875">
												<SimplePredicate field="PatientDisabled.Not.Disabled" operator="greaterOrEqual" value="0.5"/>
											</Node>
										</Node>
										<Node score="-0.26488474">
											<SimplePredicate field="TBScreening.No.Presumed.TB" operator="greaterOrEqual" value="0.5"/>
										</Node>
									</Node>
									<Node score="-0.33241633">
										<SimplePredicate field="AgeAtTest" operator="greaterOrEqual" value="1.5"/>
										<Node score="-0.053379644">
											<SimplePredicate field="EntryPoint.MTC" operator="greaterOrEqual" value="0.5"/>
										</Node>
									</Node>
									<Node score="0.083308026">
										<SimplePredicate field="PatientDisabled.Not.Disabled" operator="greaterOrEqual" value="0.5"/>
									</Node>
								</Node>
							</TreeModel>
						</Segment>
						<Segment id="5">
							<True/>
							<TreeModel functionName="regression" noTrueChildStrategy="returnLastPrediction" x-mathContext="float">
								<MiningSchema>
									<MiningField name="AgeAtTest"/>
									<MiningField name="MonthsSinceLastTest"/>
									<MiningField name="Gender.Male"/>
									<MiningField name="MaritalStatus.Married"/>
									<MiningField name="MaritalStatus.Divorced"/>
									<MiningField name="MaritalStatus.Widowed"/>
									<MiningField name="MaritalStatus.Minor"/>
									<MiningField name="PatientDisabled.Not.Disabled"/>
									<MiningField name="EverTestedForHIV.Yes"/>
									<MiningField name="EntryPoint.VCT"/>
									<MiningField name="EntryPoint.HB"/>
									<MiningField name="TestingStrategy.HB"/>
									<MiningField name="TestingStrategy.MOBILE"/>
									<MiningField name="TBScreening.No.Presumed.TB"/>
									<MiningField name="ClientSelfTested.No"/>
								</MiningSchema>
								<Node score="0.06816277">
									<True/>
									<Node score="-0.09292307">
										<SimplePredicate field="TestingStrategy.HB" operator="lessThan" value="0.5"/>
										<Node score="-0.16595203">
											<SimplePredicate field="TBScreening.No.Presumed.TB" operator="lessThan" value="0.5"/>
											<Node score="0.06126316">
												<SimplePredicate field="TestingStrategy.MOBILE" operator="lessThan" value="0.5"/>
												<Node score="-0.3437238">
													<SimplePredicate field="AgeAtTest" operator="greaterOrEqual" value="53.5"/>
													<Node score="-0.16581018">
														<SimplePredicate field="Gender.Male" operator="greaterOrEqual" value="0.5"/>
														<Node score="0.19187327">
															<SimplePredicate field="MonthsSinceLastTest" operator="greaterOrEqual" value="12.5"/>
														</Node>
													</Node>
													<Node score="-0.11324529">
														<SimplePredicate field="MonthsSinceLastTest" operator="lessThan" value="1.0"/>
													</Node>
												</Node>
												<Node score="-0.1666198">
													<SimplePredicate field="AgeAtTest" operator="greaterOrEqual" value="19.5"/>
													<Node score="0.1259956">
														<SimplePredicate field="ClientSelfTested.No" operator="greaterOrEqual" value="0.5"/>
													</Node>
												</Node>
												<Node score="-0.2918906">
													<SimplePredicate field="AgeAtTest" operator="greaterOrEqual" value="11.0"/>
												</Node>
											</Node>
											<Node score="0.06079359">
												<SimplePredicate field="MaritalStatus.Married" operator="greaterOrEqual" value="0.5"/>
											</Node>
											<Node score="0.044541467">
												<SimplePredicate field="MonthsSinceLastTest" operator="greaterOrEqual" value="13.5"/>
												<Node score="-0.09572257">
													<SimplePredicate field="AgeAtTest" operator="greaterOrEqual" value="39.5"/>
												</Node>
											</Node>
											<Node score="-0.28879285">
												<SimplePredicate field="Gender.Male" operator="greaterOrEqual" value="0.5"/>
											</Node>
										</Node>
										<Node score="0.028571354">
											<SimplePredicate field="MaritalStatus.Minor" operator="lessThan" value="0.5"/>
											<Node score="0.11032488">
												<SimplePredicate field="AgeAtTest" operator="greaterOrEqual" value="24.5"/>
												<Node score="-0.1517134">
													<SimplePredicate field="AgeAtTest" operator="greaterOrEqual" value="52.5"/>
													<Node score="-0.34064478">
														<SimplePredicate field="EverTestedForHIV.Yes" operator="greaterOrEqual" value="0.5"/>
													</Node>
												</Node>
												<Node score="-0.17834812">
													<SimplePredicate field="MaritalStatus.Widowed" operator="lessThan" value="0.5"/>
												</Node>
											</Node>
											<Node score="-0.3223509">
												<SimplePredicate field="Gender.Male" operator="greaterOrEqual" value="0.5"/>
											</Node>
											<Node score="-0.260363">
												<SimplePredicate field="MaritalStatus.Divorced" operator="lessThan" value="0.5"/>
											</Node>
										</Node>
										<Node score="-0.3389166">
											<SimplePredicate field="EntryPoint.VCT" operator="lessThan" value="0.5"/>
											<Node score="-0.061762612">
												<SimplePredicate field="MonthsSinceLastTest" operator="greaterOrEqual" value="12.5"/>
												<Node score="-0.2823701">
													<SimplePredicate field="TestingStrategy.MOBILE" operator="lessThan" value="0.5"/>
												</Node>
											</Node>
											<Node score="-0.30528307">
												<SimplePredicate field="TestingStrategy.MOBILE" operator="lessThan" value="0.5"/>
											</Node>
										</Node>
										<Node score="-0.22608827">
											<SimplePredicate field="AgeAtTest" operator="greaterOrEqual" value="29.5"/>
											<Node score="-0.018453944">
												<SimplePredicate field="MonthsSinceLastTest" operator="lessThan" value="0.5"/>
											</Node>
										</Node>
										<Node score="-0.2962575">
											<SimplePredicate field="AgeAtTest" operator="greaterOrEqual" value="5.5"/>
										</Node>
									</Node>
									<Node score="-0.25384748">
										<SimplePredicate field="EntryPoint.HB" operator="lessThan" value="0.5"/>
										<Node score="-0.05275899">
											<SimplePredicate field="AgeAtTest" operator="greaterOrEqual" value="19.5"/>
											<Node score="-0.05315033">
												<SimplePredicate field="TBScreening.No.Presumed.TB" operator="lessThan" value="0.5"/>
												<Node score="0.3131448">
													<SimplePredicate field="MonthsSinceLastTest" operator="lessThan" value="8.5"/>
												</Node>
												<Node score="0.23498778">
													<SimplePredicate field="MonthsSinceLastTest" operator="greaterOrEqual" value="9.5"/>
												</Node>
											</Node>
											<Node score="0.1989205">
												<SimplePredicate field="MaritalStatus.Married" operator="lessThan" value="0.5"/>
												<Node score="-0.16378649">
													<SimplePredicate field="AgeAtTest" operator="greaterOrEqual" value="49.0"/>
												</Node>
											</Node>
											<Node score="0.177709">
												<SimplePredicate field="AgeAtTest" operator="greaterOrEqual" value="47.5"/>
											</Node>
										</Node>
										<Node score="-0.30049193">
											<SimplePredicate field="TBScreening.No.Presumed.TB" operator="lessThan" value="2.000001"/>
											<Node score="-0.1840207">
												<SimplePredicate field="AgeAtTest" operator="greaterOrEqual" value="18.5"/>
												<Node score="0.041880008">
													<SimplePredicate field="MonthsSinceLastTest" operator="lessThan" value="9.0"/>
												</Node>
											</Node>
										</Node>
										<Node score="-0.17226474">
											<SimplePredicate field="MaritalStatus.Married" operator="lessThan" value="2.000001"/>
											<Node score="0.19857855">
												<SimplePredicate field="AgeAtTest" operator="greaterOrEqual" value="12.5"/>
											</Node>
										</Node>
									</Node>
									<Node score="-0.20839608">
										<SimplePredicate field="TBScreening.No.Presumed.TB" operator="greaterOrEqual" value="0.5"/>
										<Node score="-0.16778892">
											<SimplePredicate field="MaritalStatus.Minor" operator="lessThan" value="0.5"/>
											<Node score="0.36490536">
												<SimplePredicate field="PatientDisabled.Not.Disabled" operator="greaterOrEqual" value="0.5"/>
												<Node score="0.060277466">
													<SimplePredicate field="MonthsSinceLastTest" operator="lessThan" value="22.0"/>
												</Node>
											</Node>
											<Node score="-0.32264417">
												<SimplePredicate field="MonthsSinceLastTest" operator="lessThan" value="11.5"/>
											</Node>
										</Node>
										<Node score="0.18701923">
											<SimplePredicate field="AgeAtTest" operator="greaterOrEqual" value="58.5"/>
											<Node score="-0.1666756">
												<SimplePredicate field="MonthsSinceLastTest" operator="lessThan" value="12.5"/>
											</Node>
										</Node>
										<Node score="-0.3120072">
											<SimplePredicate field="Gender.Male" operator="greaterOrEqual" value="0.5"/>
										</Node>
									</Node>
									<Node score="-0.08092223">
										<SimplePredicate field="MaritalStatus.Married" operator="greaterOrEqual" value="0.5"/>
										<Node score="0.23510486">
											<SimplePredicate field="TBScreening.No.Presumed.TB" operator="lessThan" value="1.0E-6"/>
										</Node>
										<Node score="-0.27057952">
											<SimplePredicate field="AgeAtTest" operator="greaterOrEqual" value="3.5"/>
										</Node>
									</Node>
									<Node score="-0.16857329">
										<SimplePredicate field="EntryPoint.VCT" operator="lessThan" value="1.0E-6"/>
										<Node score="0.23564698">
											<SimplePredicate field="MonthsSinceLastTest" operator="greaterOrEqual" value="6.0"/>
										</Node>
									</Node>
									<Node score="-0.09974649">
										<SimplePredicate field="Gender.Male" operator="greaterOrEqual" value="0.5"/>
									</Node>
								</Node>
							</TreeModel>
						</Segment>
						<Segment id="6">
							<True/>
							<TreeModel functionName="regression" noTrueChildStrategy="returnLastPrediction" x-mathContext="float">
								<MiningSchema>
									<MiningField name="AgeAtTest"/>
									<MiningField name="MonthsSinceLastTest"/>
									<MiningField name="Gender.Male"/>
									<MiningField name="MaritalStatus.Married"/>
									<MiningField name="MaritalStatus.Divorced"/>
									<MiningField name="MaritalStatus.Polygamous"/>
									<MiningField name="MaritalStatus.Widowed"/>
									<MiningField name="MaritalStatus.Minor"/>
									<MiningField name="PatientDisabled.Not.Disabled"/>
									<MiningField name="ClientTestedAs.Individual"/>
									<MiningField name="EntryPoint.VCT"/>
									<MiningField name="EntryPoint.MTC"/>
									<MiningField name="EntryPoint.MOBILE"/>
									<MiningField name="EntryPoint.Other"/>
									<MiningField name="EntryPoint.HB"/>
									<MiningField name="TestingStrategy.HB"/>
									<MiningField name="TestingStrategy.MOBILE"/>
									<MiningField name="TestingStrategy.HP"/>
									<MiningField name="TBScreening.No.Presumed.TB"/>
									<MiningField name="ClientSelfTested.No"/>
								</MiningSchema>
								<Node score="-0.23324594">
									<True/>
									<Node score="-0.13489187">
										<SimplePredicate field="TestingStrategy.HB" operator="lessThan" value="0.5"/>
										<Node score="-0.07586899">
											<SimplePredicate field="MaritalStatus.Minor" operator="lessThan" value="0.5"/>
											<Node score="0.27986032">
												<SimplePredicate field="AgeAtTest" operator="greaterOrEqual" value="22.5"/>
												<Node score="-0.20223333">
													<SimplePredicate field="MaritalStatus.Divorced" operator="lessThan" value="0.5"/>
													<Node score="0.030796167">
														<SimplePredicate field="MonthsSinceLastTest" operator="greaterOrEqual" value="11.5"/>
														<Node score="-0.21915473">
															<SimplePredicate field="AgeAtTest" operator="greaterOrEqual" value="37.5"/>
														</Node>
													</Node>
													<Node score="-0.004793894">
														<SimplePredicate field="TBScreening.No.Presumed.TB" operator="lessThan" value="0.5"/>
													</Node>
												</Node>
												<Node score="-0.24775352">
													<SimplePredicate field="TestingStrategy.HP" operator="lessThan" value="0.5"/>
													<Node score="0.05177311">
														<SimplePredicate field="PatientDisabled.Not.Disabled" operator="greaterOrEqual" value="0.5"/>
													</Node>
												</Node>
												<Node score="0.0950644">
													<SimplePredicate field="MonthsSinceLastTest" operator="lessThan" value="96.0"/>
												</Node>
											</Node>
											<Node score="-0.10601077">
												<SimplePredicate field="TBScreening.No.Presumed.TB" operator="lessThan" value="2.000001"/>
												<Node score="0.042958833">
													<SimplePredicate field="PatientDisabled.Not.Disabled" operator="greaterOrEqual" value="0.5"/>
													<Node score="-0.3113694">
														<SimplePredicate field="Gender.Male" operator="greaterOrEqual" value="0.5"/>
													</Node>
												</Node>
												<Node score="-0.2783908">
													<SimplePredicate field="AgeAtTest" operator="greaterOrEqual" value="15.5"/>
												</Node>
											</Node>
											<Node score="-0.09029727">
												<SimplePredicate field="AgeAtTest" operator="greaterOrEqual" value="10.5"/>
												<Node score="-0.31017414">
													<SimplePredicate field="MaritalStatus.Divorced" operator="lessThan" value="0.5"/>
												</Node>
											</Node>
											<Node score="-0.23565796">
												<SimplePredicate field="EntryPoint.VCT" operator="lessThan" value="0.5"/>
											</Node>
										</Node>
										<Node score="-0.23962276">
											<SimplePredicate field="TBScreening.No.Presumed.TB" operator="greaterOrEqual" value="0.5"/>
											<Node score="-0.2376859">
												<SimplePredicate field="MonthsSinceLastTest" operator="greaterOrEqual" value="12.5"/>
												<Node score="-0.13736351">
													<SimplePredicate field="TestingStrategy.MOBILE" operator="lessThan" value="0.5"/>
													<Node score="-0.26503855">
														<SimplePredicate field="MonthsSinceLastTest" operator="lessThan" value="34.5"/>
													</Node>
												</Node>
												<Node score="0.07840623">
													<SimplePredicate field="AgeAtTest" operator="greaterOrEqual" value="25.5"/>
												</Node>
											</Node>
											<Node score="-0.3109365">
												<SimplePredicate field="TestingStrategy.MOBILE" operator="lessThan" value="0.5"/>
												<Node score="-0.24362426">
													<SimplePredicate field="AgeAtTest" operator="greaterOrEqual" value="25.5"/>
												</Node>
											</Node>
											<Node score="-0.3234682">
												<SimplePredicate field="ClientTestedAs.Individual" operator="greaterOrEqual" value="0.5"/>
											</Node>
										</Node>
										<Node score="-0.19315885">
											<SimplePredicate field="MonthsSinceLastTest" operator="greaterOrEqual" value="12.5"/>
											<Node score="-0.07883786">
												<SimplePredicate field="ClientSelfTested.No" operator="lessThan" value="2.000001"/>
												<Node score="0.12237108">
													<SimplePredicate field="MonthsSinceLastTest" operator="lessThan" value="18.5"/>
												</Node>
											</Node>
										</Node>
										<Node score="0.11571695">
											<SimplePredicate field="EntryPoint.MTC" operator="greaterOrEqual" value="0.5"/>
											<Node score="-0.12545486">
												<SimplePredicate field="AgeAtTest" operator="greaterOrEqual" value="25.5"/>
											</Node>
										</Node>
										<Node score="-0.2375661">
											<SimplePredicate field="ClientTestedAs.Individual" operator="greaterOrEqual" value="0.5"/>
										</Node>
									</Node>
									<Node score="-0.23032697">
										<SimplePredicate field="AgeAtTest" operator="greaterOrEqual" value="15.5"/>
										<Node score="-0.1570296">
											<SimplePredicate field="Gender.Male" operator="greaterOrEqual" value="0.5"/>
											<Node score="-0.21297926">
												<SimplePredicate field="MonthsSinceLastTest" operator="lessThan" value="2.0"/>
												<Node score="0.0143048875">
													<SimplePredicate field="EntryPoint.VCT" operator="lessThan" value="0.5"/>
													<Node score="-0.21661712">
														<SimplePredicate field="MaritalStatus.Divorced" operator="lessThan" value="0.5"/>
													</Node>
												</Node>
												<Node score="0.25526658">
													<SimplePredicate field="PatientDisabled.Not.Disabled" operator="greaterOrEqual" value="0.5"/>
												</Node>
											</Node>
											<Node score="-0.19682156">
												<SimplePredicate field="EntryPoint.HB" operator="lessThan" value="0.5"/>
												<Node score="-0.043196317">
													<SimplePredicate field="MonthsSinceLastTest" operator="greaterOrEqual" value="3.5"/>
												</Node>
											</Node>
											<Node score="-0.32596508">
												<SimplePredicate field="MonthsSinceLastTest" operator="lessThan" value="11.5"/>
											</Node>
										</Node>
										<Node score="-0.06304209">
											<SimplePredicate field="PatientDisabled.Not.Disabled" operator="greaterOrEqual" value="0.5"/>
											<Node score="0.06856388">
												<SimplePredicate field="MaritalStatus.Polygamous" operator="lessThan" value="0.5"/>
												<Node score="0.39437366">
													<SimplePredicate field="EntryPoint.VCT" operator="greaterOrEqual" value="0.5"/>
												</Node>
											</Node>
											<Node score="0.08734751">
												<SimplePredicate field="EntryPoint.MOBILE" operator="greaterOrEqual" value="0.5"/>
											</Node>
										</Node>
										<Node score="-0.18412443">
											<SimplePredicate field="MonthsSinceLastTest" operator="greaterOrEqual" value="11.5"/>
											<Node score="0.089374624">
												<SimplePredicate field="MaritalStatus.Married" operator="lessThan" value="2.000001"/>
											</Node>
										</Node>
										<Node score="0.061865278">
											<SimplePredicate field="MaritalStatus.Widowed" operator="greaterOrEqual" value="0.5"/>
										</Node>
									</Node>
									<Node score="-0.14027692">
										<SimplePredicate field="AgeAtTest" operator="greaterOrEqual" value="1.5"/>
										<Node score="-0.010395979">
											<SimplePredicate field="EntryPoint.MTC" operator="greaterOrEqual" value="0.5"/>
										</Node>
										<Node score="-0.06776355">
											<SimplePredicate field="EntryPoint.Other" operator="greaterOrEqual" value="0.5"/>
										</Node>
										<Node score="-0.2774174">
											<SimplePredicate field="AgeAtTest" operator="greaterOrEqual" value="2.5"/>
										</Node>
									</Node>
									<Node score="0.1056111">
										<SimplePredicate field="Gender.Male" operator="greaterOrEqual" value="0.5"/>
									</Node>
								</Node>
							</TreeModel>
						</Segment>
						<Segment id="7">
							<True/>
							<TreeModel functionName="regression" noTrueChildStrategy="returnLastPrediction" x-mathContext="float">
								<MiningSchema>
									<MiningField name="AgeAtTest"/>
									<MiningField name="MonthsSinceLastTest"/>
									<MiningField name="Gender.Male"/>
									<MiningField name="MaritalStatus.Married"/>
									<MiningField name="MaritalStatus.Divorced"/>
									<MiningField name="MaritalStatus.Minor"/>
									<MiningField name="PatientDisabled.Not.Disabled"/>
									<MiningField name="ClientTestedAs.Individual"/>
									<MiningField name="EntryPoint.VCT"/>
									<MiningField name="EntryPoint.OPD"/>
									<MiningField name="EntryPoint.MTC"/>
									<MiningField name="EntryPoint.IPD"/>
									<MiningField name="EntryPoint.MOBILE"/>
									<MiningField name="TestingStrategy.VCT"/>
									<MiningField name="TestingStrategy.HB"/>
									<MiningField name="TestingStrategy.MOBILE"/>
									<MiningField name="TBScreening.No.Presumed.TB"/>
								</MiningSchema>
								<Node score="-0.27782866">
									<True/>
									<Node score="0.1630158">
										<SimplePredicate field="TestingStrategy.HB" operator="lessThan" value="0.5"/>
										<Node score="-0.043703083">
											<SimplePredicate field="MaritalStatus.Minor" operator="lessThan" value="0.5"/>
											<Node score="-0.044851646">
												<SimplePredicate field="AgeAtTest" operator="greaterOrEqual" value="20.5"/>
												<Node score="-0.13705581">
													<SimplePredicate field="MonthsSinceLastTest" operator="greaterOrEqual" value="21.5"/>
													<Node score="-0.24104635">
														<SimplePredicate field="AgeAtTest" operator="greaterOrEqual" value="46.0"/>
														<Node score="-0.058136594">
															<SimplePredicate field="AgeAtTest" operator="greaterOrEqual" value="64.0"/>
														</Node>
													</Node>
													<Node score="0.25625223">
														<SimplePredicate field="EntryPoint.VCT" operator="lessThan" value="0.5"/>
													</Node>
												</Node>
												<Node score="-0.21389407">
													<SimplePredicate field="MaritalStatus.Divorced" operator="lessThan" value="0.5"/>
													<Node score="-0.11604429">
														<SimplePredicate field="TBScreening.No.Presumed.TB" operator="lessThan" value="2.000001"/>
													</Node>
												</Node>
												<Node score="0.13243382">
													<SimplePredicate field="AgeAtTest" operator="greaterOrEqual" value="30.5"/>
												</Node>
											</Node>
											<Node score="0.13579182">
												<SimplePredicate field="MonthsSinceLastTest" operator="lessThan" value="11.5"/>
												<Node score="0.1056457">
													<SimplePredicate field="EntryPoint.VCT" operator="lessThan" value="0.5"/>
													<Node score="-0.23876221">
														<SimplePredicate field="MonthsSinceLastTest" operator="lessThan" value="7.5"/>
													</Node>
												</Node>
												<Node score="-0.28318906">
													<SimplePredicate field="Gender.Male" operator="greaterOrEqual" value="0.5"/>
												</Node>
											</Node>
											<Node score="-0.30862266">
												<SimplePredicate field="ClientTestedAs.Individual" operator="greaterOrEqual" value="0.5"/>
												<Node score="-0.14148732">
													<SimplePredicate field="EntryPoint.MTC" operator="greaterOrEqual" value="0.5"/>
												</Node>
											</Node>
										</Node>
										<Node score="-0.21347404">
											<SimplePredicate field="TBScreening.No.Presumed.TB" operator="greaterOrEqual" value="0.5"/>
											<Node score="-0.30696493">
												<SimplePredicate field="MonthsSinceLastTest" operator="greaterOrEqual" value="12.5"/>
												<Node score="-0.1104747">
													<SimplePredicate field="TestingStrategy.MOBILE" operator="lessThan" value="0.5"/>
													<Node score="-0.23731802">
														<SimplePredicate field="MonthsSinceLastTest" operator="lessThan" value="34.5"/>
													</Node>
												</Node>
												<Node score="0.033033185">
													<SimplePredicate field="MonthsSinceLastTest" operator="lessThan" value="21.0"/>
												</Node>
											</Node>
											<Node score="-0.29266253">
												<SimplePredicate field="TestingStrategy.MOBILE" operator="lessThan" value="0.5"/>
												<Node score="-0.21488313">
													<SimplePredicate field="AgeAtTest" operator="greaterOrEqual" value="25.5"/>
												</Node>
											</Node>
											<Node score="-0.3100381">
												<SimplePredicate field="ClientTestedAs.Individual" operator="greaterOrEqual" value="0.5"/>
											</Node>
										</Node>
										<Node score="0.2710907">
											<SimplePredicate field="TBScreening.No.Presumed.TB" operator="lessThan" value="1.0E-6"/>
											<Node score="-0.10030176">
												<SimplePredicate field="TestingStrategy.VCT" operator="lessThan" value="0.5"/>
												<Node score="-0.2192567">
													<SimplePredicate field="Gender.Male" operator="greaterOrEqual" value="0.5"/>
												</Node>
											</Node>
											<Node score="-0.015472467">
												<SimplePredicate field="EntryPoint.IPD" operator="lessThan" value="0.5"/>
											</Node>
										</Node>
										<Node score="-0.02181425">
											<SimplePredicate field="EntryPoint.OPD" operator="greaterOrEqual" value="0.5"/>
											<Node score="-0.27020794">
												<SimplePredicate field="ClientTestedAs.Individual" operator="greaterOrEqual" value="0.5"/>
											</Node>
										</Node>
										<Node score="-0.17626444">
											<SimplePredicate field="AgeAtTest" operator="greaterOrEqual" value="5.5"/>
										</Node>
									</Node>
									<Node score="-0.11376811">
										<SimplePredicate field="AgeAtTest" operator="greaterOrEqual" value="15.5"/>
										<Node score="-0.008250433">
											<SimplePredicate field="PatientDisabled.Not.Disabled" operator="greaterOrEqual" value="0.5"/>
											<Node score="0.25773057">
												<SimplePredicate field="TBScreening.No.Presumed.TB" operator="lessThan" value="0.5"/>
											</Node>
											<Node score="-0.14870018">
												<SimplePredicate field="Gender.Male" operator="greaterOrEqual" value="0.5"/>
												<Node score="-0.046755813">
													<SimplePredicate field="AgeAtTest" operator="greaterOrEqual" value="30.5"/>
												</Node>
											</Node>
											<Node score="0.35833964">
												<SimplePredicate field="EntryPoint.MTC" operator="greaterOrEqual" value="0.5"/>
											</Node>
										</Node>
										<Node score="0.15915535">
											<SimplePredicate field="MaritalStatus.Married" operator="lessThan" value="2.000001"/>
											<Node score="0.35350025">
												<SimplePredicate field="MonthsSinceLastTest" operator="greaterOrEqual" value="13.5"/>
												<Node score="0.015263795">
													<SimplePredicate field="MonthsSinceLastTest" operator="lessThan" value="60.0"/>
												</Node>
											</Node>
											<Node score="-0.15415369">
												<SimplePredicate field="ClientTestedAs.Individual" operator="greaterOrEqual" value="0.5"/>
											</Node>
										</Node>
										<Node score="-0.045984056">
											<SimplePredicate field="AgeAtTest" operator="greaterOrEqual" value="49.5"/>
										</Node>
										<Node score="-0.2907437">
											<SimplePredicate field="AgeAtTest" operator="greaterOrEqual" value="21.5"/>
										</Node>
									</Node>
									<Node score="-0.22668414">
										<SimplePredicate field="MonthsSinceLastTest" operator="lessThan" value="1.5"/>
										<Node score="0.11234506">
											<SimplePredicate field="AgeAtTest" operator="greaterOrEqual" value="12.5"/>
											<Node score="-0.098590836">
												<SimplePredicate field="EntryPoint.MOBILE" operator="lessThan" value="0.5"/>
											</Node>
											<Node score="-0.029920451">
												<SimplePredicate field="AgeAtTest" operator="greaterOrEqual" value="13.5"/>
											</Node>
										</Node>
										<Node score="-0.21667697">
											<SimplePredicate field="AgeAtTest" operator="greaterOrEqual" value="2.5"/>
											<Node score="-0.07611571">
												<SimplePredicate field="AgeAtTest" operator="greaterOrEqual" value="11.5"/>
											</Node>
										</Node>
										<Node score="0.23766632">
											<SimplePredicate field="EntryPoint.MTC" operator="lessThan" value="0.5"/>
										</Node>
									</Node>
								</Node>
							</TreeModel>
						</Segment>
						<Segment id="8">
							<True/>
							<TreeModel functionName="regression" noTrueChildStrategy="returnLastPrediction" x-mathContext="float">
								<MiningSchema>
									<MiningField name="AgeAtTest"/>
									<MiningField name="MonthsSinceLastTest"/>
									<MiningField name="Gender.Male"/>
									<MiningField name="KeyPopulationType.SW"/>
									<MiningField name="MaritalStatus.Married"/>
									<MiningField name="MaritalStatus.Divorced"/>
									<MiningField name="MaritalStatus.Widowed"/>
									<MiningField name="MaritalStatus.Minor"/>
									<MiningField name="PatientDisabled.Not.Disabled"/>
									<MiningField name="EverTestedForHIV.Yes"/>
									<MiningField name="EntryPoint.VCT"/>
									<MiningField name="EntryPoint.OPD"/>
									<MiningField name="EntryPoint.MTC"/>
									<MiningField name="EntryPoint.IPD"/>
									<MiningField name="EntryPoint.MOBILE"/>
									<MiningField name="EntryPoint.HB"/>
									<MiningField name="TestingStrategy.HB"/>
									<MiningField name="TBScreening.No.Presumed.TB"/>
									<MiningField name="ClientSelfTested.No"/>
								</MiningSchema>
								<Node score="0.120403536">
									<True/>
									<Node score="0.077080786">
										<SimplePredicate field="TestingStrategy.HB" operator="lessThan" value="0.5"/>
										<Node score="-0.1192038">
											<SimplePredicate field="AgeAtTest" operator="greaterOrEqual" value="25.5"/>
											<Node score="0.10594128">
												<SimplePredicate field="MaritalStatus.Married" operator="lessThan" value="2.000001"/>
												<Node score="-0.19529223">
													<SimplePredicate field="AgeAtTest" operator="greaterOrEqual" value="52.5"/>
													<Node score="-0.01700774">
														<SimplePredicate field="EverTestedForHIV.Yes" operator="greaterOrEqual" value="0.5"/>
														<Node score="-0.29563934">
															<SimplePredicate field="EntryPoint.MTC" operator="lessThan" value="0.5"/>
														</Node>
													</Node>
													<Node score="0.081914686">
														<SimplePredicate field="TBScreening.No.Presumed.TB" operator="greaterOrEqual" value="0.5"/>
													</Node>
												</Node>
												<Node score="0.30131415">
													<SimplePredicate field="PatientDisabled.Not.Disabled" operator="greaterOrEqual" value="0.5"/>
													<Node score="-0.024763849">
														<SimplePredicate field="MaritalStatus.Widowed" operator="lessThan" value="0.5"/>
													</Node>
												</Node>
												<Node score="-0.15617426">
													<SimplePredicate field="TBScreening.No.Presumed.TB" operator="greaterOrEqual" value="0.5"/>
												</Node>
											</Node>
											<Node score="-0.16660845">
												<SimplePredicate field="EntryPoint.MOBILE" operator="greaterOrEqual" value="0.5"/>
												<Node score="-0.23773451">
													<SimplePredicate field="MonthsSinceLastTest" operator="greaterOrEqual" value="13.5"/>
													<Node score="0.21456726">
														<SimplePredicate field="MonthsSinceLastTest" operator="lessThan" value="21.0"/>
													</Node>
												</Node>
												<Node score="-0.28023505">
													<SimplePredicate field="TBScreening.No.Presumed.TB" operator="greaterOrEqual" value="0.5"/>
												</Node>
											</Node>
											<Node score="0.094214626">
												<SimplePredicate field="TBScreening.No.Presumed.TB" operator="lessThan" value="0.5"/>
												<Node score="-0.1842506">
													<SimplePredicate field="AgeAtTest" operator="greaterOrEqual" value="57.5"/>
												</Node>
											</Node>
											<Node score="-0.19854276">
												<SimplePredicate field="EntryPoint.VCT" operator="lessThan" value="0.5"/>
											</Node>
										</Node>
										<Node score="-0.13864718">
											<SimplePredicate field="MaritalStatus.Minor" operator="lessThan" value="0.5"/>
											<Node score="-0.08234033">
												<SimplePredicate field="MonthsSinceLastTest" operator="greaterOrEqual" value="5.5"/>
												<Node score="-0.16335748">
													<SimplePredicate field="EntryPoint.IPD" operator="lessThan" value="0.5"/>
													<Node score="0.01758467">
														<SimplePredicate field="MonthsSinceLastTest" operator="lessThan" value="11.5"/>
													</Node>
												</Node>
												<Node score="0.5054632">
													<SimplePredicate field="PatientDisabled.Not.Disabled" operator="greaterOrEqual" value="0.5"/>
												</Node>
											</Node>
											<Node score="-0.22835006">
												<SimplePredicate field="MaritalStatus.Divorced" operator="lessThan" value="0.5"/>
												<Node score="0.029035646">
													<SimplePredicate field="KeyPopulationType.SW" operator="greaterOrEqual" value="0.5"/>
												</Node>
											</Node>
											<Node score="0.17053841">
												<SimplePredicate field="AgeAtTest" operator="greaterOrEqual" value="20.5"/>
											</Node>
										</Node>
										<Node score="-0.27535564">
											<SimplePredicate field="TBScreening.No.Presumed.TB" operator="greaterOrEqual" value="0.5"/>
											<Node score="-0.2645052">
												<SimplePredicate field="MonthsSinceLastTest" operator="greaterOrEqual" value="12.5"/>
												<Node score="-0.13458988">
													<SimplePredicate field="AgeAtTest" operator="greaterOrEqual" value="20.5"/>
												</Node>
											</Node>
											<Node score="-0.30516753">
												<SimplePredicate field="Gender.Male" operator="greaterOrEqual" value="0.5"/>
											</Node>
										</Node>
										<Node score="-0.14237835">
											<SimplePredicate field="EntryPoint.MTC" operator="greaterOrEqual" value="0.5"/>
											<Node score="0.32691172">
												<SimplePredicate field="AgeAtTest" operator="greaterOrEqual" value="21.5"/>
											</Node>
										</Node>
										<Node score="-0.20357157">
											<SimplePredicate field="AgeAtTest" operator="greaterOrEqual" value="3.5"/>
										</Node>
									</Node>
									<Node score="0.2098136">
										<SimplePredicate field="AgeAtTest" operator="greaterOrEqual" value="15.5"/>
										<Node score="-0.08845323">
											<SimplePredicate field="EntryPoint.HB" operator="greaterOrEqual" value="0.5"/>
											<Node score="0.3144087">
												<SimplePredicate field="AgeAtTest" operator="greaterOrEqual" value="24.5"/>
												<Node score="0.08844559">
													<SimplePredicate field="EverTestedForHIV.Yes" operator="greaterOrEqual" value="0.5"/>
													<Node score="-0.15969478">
														<SimplePredicate field="ClientSelfTested.No" operator="lessThan" value="2.000001"/>
													</Node>
												</Node>
												<Node score="-0.061311513">
													<SimplePredicate field="AgeAtTest" operator="greaterOrEqual" value="31.5"/>
												</Node>
											</Node>
											<Node score="-0.17015794">
												<SimplePredicate field="Gender.Male" operator="greaterOrEqual" value="0.5"/>
												<Node score="0.057321955">
													<SimplePredicate field="MonthsSinceLastTest" operator="greaterOrEqual" value="10.5"/>
												</Node>
											</Node>
											<Node score="0.13922223">
												<SimplePredicate field="PatientDisabled.Not.Disabled" operator="greaterOrEqual" value="0.5"/>
											</Node>
										</Node>
										<Node score="-0.1285575">
											<SimplePredicate field="ClientSelfTested.No" operator="lessThan" value="2.000001"/>
											<Node score="0.26195046">
												<SimplePredicate field="MaritalStatus.Married" operator="lessThan" value="0.5"/>
												<Node score="0.0019112275">
													<SimplePredicate field="AgeAtTest" operator="greaterOrEqual" value="32.5"/>
												</Node>
											</Node>
											<Node score="-0.0062104696">
												<SimplePredicate field="PatientDisabled.Not.Disabled" operator="greaterOrEqual" value="0.5"/>
											</Node>
										</Node>
										<Node score="-0.30688146">
											<SimplePredicate field="MonthsSinceLastTest" operator="lessThan" value="20.0"/>
											<Node score="-0.01954174">
												<SimplePredicate field="EntryPoint.MTC" operator="lessThan" value="0.5"/>
											</Node>
										</Node>
									</Node>
									<Node score="-0.17803401">
										<SimplePredicate field="MonthsSinceLastTest" operator="lessThan" value="1.5"/>
										<Node score="-0.045291014">
											<SimplePredicate field="AgeAtTest" operator="greaterOrEqual" value="12.5"/>
											<Node score="-0.11219844">
												<SimplePredicate field="Gender.Male" operator="greaterOrEqual" value="0.5"/>
											</Node>
											<Node score="0.10718797">
												<SimplePredicate field="EntryPoint.OPD" operator="lessThan" value="0.5"/>
											</Node>
										</Node>
										<Node score="-0.24280888">
											<SimplePredicate field="AgeAtTest" operator="greaterOrEqual" value="3.5"/>
											<Node score="-0.13108258">
												<SimplePredicate field="EntryPoint.MOBILE" operator="lessThan" value="0.5"/>
											</Node>
										</Node>
										<Node score="0.09891042">
											<SimplePredicate field="Gender.Male" operator="greaterOrEqual" value="0.5"/>
										</Node>
									</Node>
									<Node score="-0.2657769">
										<SimplePredicate field="AgeAtTest" operator="greaterOrEqual" value="2.5"/>
									</Node>
									<Node score="-0.23709287">
										<SimplePredicate field="EntryPoint.VCT" operator="lessThan" value="1.0E-6"/>
									</Node>
								</Node>
							</TreeModel>
						</Segment>
						<Segment id="9">
							<True/>
							<TreeModel functionName="regression" noTrueChildStrategy="returnLastPrediction" x-mathContext="float">
								<MiningSchema>
									<MiningField name="AgeAtTest"/>
									<MiningField name="MonthsSinceLastTest"/>
									<MiningField name="Gender.Male"/>
									<MiningField name="MaritalStatus.Married"/>
									<MiningField name="MaritalStatus.Minor"/>
									<MiningField name="PatientDisabled.Not.Disabled"/>
									<MiningField name="ClientTestedAs.Individual"/>
									<MiningField name="EntryPoint.MOBILE"/>
									<MiningField name="EntryPoint.PEDS"/>
									<MiningField name="TestingStrategy.VCT"/>
									<MiningField name="TestingStrategy.HB"/>
									<MiningField name="TestingStrategy.MOBILE"/>
									<MiningField name="TBScreening.No.Presumed.TB"/>
									<MiningField name="ClientSelfTested.No"/>
								</MiningSchema>
								<Node score="0.05197363">
									<True/>
									<Node score="0.2664434">
										<SimplePredicate field="TestingStrategy.HB" operator="lessThan" value="0.5"/>
										<Node score="-0.22658597">
											<SimplePredicate field="TestingStrategy.MOBILE" operator="lessThan" value="0.5"/>
											<Node score="-0.15744105">
												<SimplePredicate field="AgeAtTest" operator="greaterOrEqual" value="20.5"/>
												<Node score="0.39725032">
													<SimplePredicate field="TBScreening.No.Presumed.TB" operator="lessThan" value="0.5"/>
													<Node score="-0.2401838">
														<SimplePredicate field="AgeAtTest" operator="greaterOrEqual" value="53.5"/>
														<Node score="0.050209552">
															<SimplePredicate field="Gender.Male" operator="greaterOrEqual" value="0.5"/>
														</Node>
													</Node>
													<Node score="0.05051882">
														<SimplePredicate field="EntryPoint.PEDS" operator="lessThan" value="0.5"/>
													</Node>
												</Node>
												<Node score="0.089745626">
													<SimplePredicate field="MaritalStatus.Married" operator="lessThan" value="0.5"/>
													<Node score="-0.13034645">
														<SimplePredicate field="AgeAtTest" operator="greaterOrEqual" value="36.5"/>
													</Node>
												</Node>
												<Node score="0.04459588">
													<SimplePredicate field="MonthsSinceLastTest" operator="greaterOrEqual" value="31.5"/>
												</Node>
											</Node>
											<Node score="0.11419123">
												<SimplePredicate field="TBScreening.No.Presumed.TB" operator="lessThan" value="0.5"/>
												<Node score="0.2514509">
													<SimplePredicate field="AgeAtTest" operator="greaterOrEqual" value="18.5"/>
												</Node>
												<Node score="-0.25879192">
													<SimplePredicate field="AgeAtTest" operator="greaterOrEqual" value="11.0"/>
												</Node>
											</Node>
											<Node score="-0.14799297">
												<SimplePredicate field="AgeAtTest" operator="greaterOrEqual" value="15.5"/>
												<Node score="-0.27064466">
													<SimplePredicate field="ClientTestedAs.Individual" operator="greaterOrEqual" value="0.5"/>
												</Node>
											</Node>
											<Node score="0.035196885">
												<SimplePredicate field="TestingStrategy.VCT" operator="lessThan" value="0.5"/>
											</Node>
										</Node>
										<Node score="-0.26323137">
											<SimplePredicate field="MonthsSinceLastTest" operator="greaterOrEqual" value="12.5"/>
											<Node score="-0.27725497">
												<SimplePredicate field="MonthsSinceLastTest" operator="lessThan" value="21.0"/>
												<Node score="-0.15635443">
													<SimplePredicate field="ClientSelfTested.No" operator="greaterOrEqual" value="0.5"/>
													<Node score="0.17488116">
														<SimplePredicate field="AgeAtTest" operator="greaterOrEqual" value="23.5"/>
													</Node>
												</Node>
											</Node>
										</Node>
										<Node score="-0.1492209">
											<SimplePredicate field="TBScreening.No.Presumed.TB" operator="greaterOrEqual" value="0.5"/>
											<Node score="-0.23536192">
												<SimplePredicate field="MaritalStatus.Minor" operator="lessThan" value="0.5"/>
												<Node score="0.026487505">
													<SimplePredicate field="PatientDisabled.Not.Disabled" operator="greaterOrEqual" value="0.5"/>
												</Node>
											</Node>
											<Node score="-0.28776124">
												<SimplePredicate field="ClientTestedAs.Individual" operator="greaterOrEqual" value="0.5"/>
											</Node>
										</Node>
										<Node score="-0.09162055">
											<SimplePredicate field="MonthsSinceLastTest" operator="greaterOrEqual" value="0.5"/>
											<Node score="-0.24001619">
												<SimplePredicate field="MonthsSinceLastTest" operator="lessThan" value="8.5"/>
											</Node>
										</Node>
									</Node>
									<Node score="-0.03819203">
										<SimplePredicate field="AgeAtTest" operator="greaterOrEqual" value="15.5"/>
										<Node score="0.025607595">
											<SimplePredicate field="TBScreening.No.Presumed.TB" operator="lessThan" value="0.5"/>
											<Node score="0.25308827">
												<SimplePredicate field="EntryPoint.PEDS" operator="lessThan" value="0.5"/>
												<Node score="0.29203027">
													<SimplePredicate field="MonthsSinceLastTest" operator="lessThan" value="8.5"/>
												</Node>
												<Node score="-0.03611967">
													<SimplePredicate field="MonthsSinceLastTest" operator="lessThan" value="11.5"/>
												</Node>
											</Node>
										</Node>
										<Node score="0.04758247">
											<SimplePredicate field="MonthsSinceLastTest" operator="lessThan" value="2.5"/>
											<Node score="-0.2517512">
												<SimplePredicate field="MaritalStatus.Married" operator="greaterOrEqual" value="0.5"/>
												<Node score="0.018783653">
													<SimplePredicate field="TBScreening.No.Presumed.TB" operator="lessThan" value="2.000001"/>
												</Node>
											</Node>
											<Node score="0.28426906">
												<SimplePredicate field="AgeAtTest" operator="greaterOrEqual" value="47.5"/>
											</Node>
										</Node>
										<Node score="-0.046365734">
											<SimplePredicate field="MaritalStatus.Married" operator="lessThan" value="2.000001"/>
											<Node score="0.058564186">
												<SimplePredicate field="MonthsSinceLastTest" operator="greaterOrEqual" value="3.5"/>
											</Node>
										</Node>
										<Node score="-0.12797146">
											<SimplePredicate field="EntryPoint.MOBILE" operator="lessThan" value="0.5"/>
										</Node>
									</Node>
									<Node score="-0.2899337">
										<SimplePredicate field="MonthsSinceLastTest" operator="greaterOrEqual" value="1.5"/>
										<Node score="-0.11783793">
											<SimplePredicate field="EntryPoint.MOBILE" operator="greaterOrEqual" value="0.5"/>
										</Node>
									</Node>
									<Node score="-0.03050057">
										<SimplePredicate field="AgeAtTest" operator="greaterOrEqual" value="12.5"/>
										<Node score="0.30330354">
											<SimplePredicate field="MaritalStatus.Married" operator="lessThan" value="0.5"/>
											<Node score="-0.03295285">
												<SimplePredicate field="Gender.Male" operator="greaterOrEqual" value="0.5"/>
											</Node>
										</Node>
										<Node score="-0.23032968">
											<SimplePredicate field="AgeAtTest" operator="greaterOrEqual" value="13.5"/>
										</Node>
									</Node>
									<Node score="-0.12286398">
										<SimplePredicate field="AgeAtTest" operator="greaterOrEqual" value="1.5"/>
										<Node score="-0.20875557">
											<SimplePredicate field="AgeAtTest" operator="greaterOrEqual" value="5.5"/>
										</Node>
									</Node>
								</Node>
							</TreeModel>
						</Segment>
						<Segment id="10">
							<True/>
							<TreeModel functionName="regression" noTrueChildStrategy="returnLastPrediction" x-mathContext="float">
								<MiningSchema>
									<MiningField name="AgeAtTest"/>
									<MiningField name="MonthsSinceLastTest"/>
									<MiningField name="Gender.Male"/>
									<MiningField name="KeyPopulationType.GP"/>
									<MiningField name="MaritalStatus.Married"/>
									<MiningField name="MaritalStatus.Polygamous"/>
									<MiningField name="MaritalStatus.Minor"/>
									<MiningField name="PatientDisabled.Not.Disabled"/>
									<MiningField name="EverTestedForHIV.Yes"/>
									<MiningField name="ClientTestedAs.Individual"/>
									<MiningField name="EntryPoint.VCT"/>
									<MiningField name="EntryPoint.OPD"/>
									<MiningField name="EntryPoint.MTC"/>
									<MiningField name="EntryPoint.Other"/>
									<MiningField name="EntryPoint.HB"/>
									<MiningField name="TestingStrategy.HB"/>
									<MiningField name="TestingStrategy.MOBILE"/>
									<MiningField name="TestingStrategy.NP"/>
									<MiningField name="TBScreening.No.Presumed.TB"/>
								</MiningSchema>
								<Node score="-0.19523709">
									<True/>
									<Node score="-0.2815595">
										<SimplePredicate field="TestingStrategy.HB" operator="lessThan" value="0.5"/>
										<Node score="0.007345694">
											<SimplePredicate field="TestingStrategy.MOBILE" operator="lessThan" value="0.5"/>
											<Node score="0.12823963">
												<SimplePredicate field="AgeAtTest" operator="greaterOrEqual" value="20.5"/>
												<Node score="0.1673676">
													<SimplePredicate field="TBScreening.No.Presumed.TB" operator="lessThan" value="0.5"/>
													<Node score="-0.26205334">
														<SimplePredicate field="EntryPoint.Other" operator="greaterOrEqual" value="0.5"/>
													</Node>
													<Node score="-0.008495612">
														<SimplePredicate field="MonthsSinceLastTest" operator="greaterOrEqual" value="3.5"/>
													</Node>
												</Node>
												<Node score="-0.15698266">
													<SimplePredicate field="EntryPoint.VCT" operator="lessThan" value="0.5"/>
													<Node score="-0.07388024">
														<SimplePredicate field="MaritalStatus.Married" operator="lessThan" value="2.000001"/>
													</Node>
												</Node>
												<Node score="-0.08342926">
													<SimplePredicate field="EverTestedForHIV.Yes" operator="greaterOrEqual" value="0.5"/>
												</Node>
											</Node>
											<Node score="0.09008519">
												<SimplePredicate field="TBScreening.No.Presumed.TB" operator="lessThan" value="0.5"/>
												<Node score="0.18601222">
													<SimplePredicate field="AgeAtTest" operator="greaterOrEqual" value="18.5"/>
												</Node>
												<Node score="-0.23672418">
													<SimplePredicate field="AgeAtTest" operator="greaterOrEqual" value="11.0"/>
												</Node>
											</Node>
											<Node score="-0.23636338">
												<SimplePredicate field="MaritalStatus.Minor" operator="lessThan" value="0.5"/>
												<Node score="-0.088361666">
													<SimplePredicate field="MonthsSinceLastTest" operator="lessThan" value="9.5"/>
												</Node>
											</Node>
											<Node score="-0.24604595">
												<SimplePredicate field="TestingStrategy.NP" operator="lessThan" value="0.5"/>
											</Node>
										</Node>
										<Node score="-0.11300204">
											<SimplePredicate field="MonthsSinceLastTest" operator="lessThan" value="12.5"/>
											<Node score="-0.08471681">
												<SimplePredicate field="MaritalStatus.Minor" operator="lessThan" value="0.5"/>
												<Node score="-0.0031519004">
													<SimplePredicate field="PatientDisabled.Not.Disabled" operator="greaterOrEqual" value="0.5"/>
													<Node score="0.32307196">
														<SimplePredicate field="AgeAtTest" operator="greaterOrEqual" value="41.5"/>
													</Node>
												</Node>
												<Node score="-0.2822684">
													<SimplePredicate field="KeyPopulationType.GP" operator="greaterOrEqual" value="0.5"/>
												</Node>
											</Node>
											<Node score="-0.007406308">
												<SimplePredicate field="TBScreening.No.Presumed.TB" operator="lessThan" value="0.5"/>
												<Node score="-0.1604195">
													<SimplePredicate field="Gender.Male" operator="greaterOrEqual" value="0.5"/>
												</Node>
											</Node>
											<Node score="-0.27604505">
												<SimplePredicate field="ClientTestedAs.Individual" operator="greaterOrEqual" value="0.5"/>
											</Node>
										</Node>
										<Node score="0.001624513">
											<SimplePredicate field="AgeAtTest" operator="greaterOrEqual" value="24.5"/>
											<Node score="-0.270848">
												<SimplePredicate field="AgeAtTest" operator="greaterOrEqual" value="49.5"/>
											</Node>
											<Node score="0.49767223">
												<SimplePredicate field="AgeAtTest" operator="greaterOrEqual" value="42.5"/>
											</Node>
										</Node>
										<Node score="0.027587589">
											<SimplePredicate field="MonthsSinceLastTest" operator="lessThan" value="13.5"/>
										</Node>
									</Node>
									<Node score="0.114326715">
										<SimplePredicate field="PatientDisabled.Not.Disabled" operator="greaterOrEqual" value="0.5"/>
										<Node score="0.0064826943">
											<SimplePredicate field="AgeAtTest" operator="greaterOrEqual" value="12.5"/>
											<Node score="0.17066784">
												<SimplePredicate field="Gender.Male" operator="greaterOrEqual" value="0.5"/>
												<Node score="0.2651903">
													<SimplePredicate field="AgeAtTest" operator="greaterOrEqual" value="44.5"/>
													<Node score="0.019504013">
														<SimplePredicate field="AgeAtTest" operator="greaterOrEqual" value="45.5"/>
													</Node>
												</Node>
												<Node score="-0.07225308">
													<SimplePredicate field="ClientTestedAs.Individual" operator="greaterOrEqual" value="0.5"/>
												</Node>
											</Node>
											<Node score="0.33599278">
												<SimplePredicate field="EntryPoint.MTC" operator="greaterOrEqual" value="0.5"/>
											</Node>
											<Node score="0.14854513">
												<SimplePredicate field="EntryPoint.VCT" operator="greaterOrEqual" value="0.5"/>
											</Node>
										</Node>
										<Node score="-0.11809761">
											<SimplePredicate field="AgeAtTest" operator="greaterOrEqual" value="1.5"/>
											<Node score="-0.16367367">
												<SimplePredicate field="MonthsSinceLastTest" operator="lessThan" value="1.5"/>
												<Node score="-0.07065033">
													<SimplePredicate field="EntryPoint.HB" operator="greaterOrEqual" value="0.5"/>
												</Node>
											</Node>
											<Node score="-0.2729337">
												<SimplePredicate field="AgeAtTest" operator="greaterOrEqual" value="6.5"/>
											</Node>
										</Node>
									</Node>
									<Node score="0.008194715">
										<SimplePredicate field="EntryPoint.Other" operator="greaterOrEqual" value="0.5"/>
										<Node score="0.34530196">
											<SimplePredicate field="MonthsSinceLastTest" operator="greaterOrEqual" value="42.0"/>
										</Node>
										<Node score="0.24999665">
											<SimplePredicate field="MonthsSinceLastTest" operator="lessThan" value="0.5"/>
										</Node>
										<Node score="-0.29498643">
											<SimplePredicate field="MonthsSinceLastTest" operator="lessThan" value="11.5"/>
										</Node>
									</Node>
									<Node score="0.23352024">
										<SimplePredicate field="MaritalStatus.Minor" operator="lessThan" value="0.5"/>
										<Node score="-0.23313205">
											<SimplePredicate field="MonthsSinceLastTest" operator="lessThan" value="11.5"/>
											<Node score="-0.017013121">
												<SimplePredicate field="EntryPoint.OPD" operator="greaterOrEqual" value="0.5"/>
											</Node>
										</Node>
										<Node score="-0.07863888">
											<SimplePredicate field="MaritalStatus.Polygamous" operator="lessThan" value="0.5"/>
										</Node>
									</Node>
									<Node score="-0.3050176">
										<SimplePredicate field="Gender.Male" operator="greaterOrEqual" value="0.5"/>
									</Node>
									<Node score="-0.012523459">
										<SimplePredicate field="MonthsSinceLastTest" operator="lessThan" value="12.5"/>
									</Node>
								</Node>
							</TreeModel>
						</Segment>
						<Segment id="11">
							<True/>
							<TreeModel functionName="regression" noTrueChildStrategy="returnLastPrediction" x-mathContext="float">
								<MiningSchema>
									<MiningField name="AgeAtTest"/>
									<MiningField name="MonthsSinceLastTest"/>
									<MiningField name="Gender.Male"/>
									<MiningField name="KeyPopulationType.GP"/>
									<MiningField name="MaritalStatus.Married"/>
									<MiningField name="MaritalStatus.Divorced"/>
									<MiningField name="MaritalStatus.Minor"/>
									<MiningField name="PatientDisabled.Not.Disabled"/>
									<MiningField name="EverTestedForHIV.Yes"/>
									<MiningField name="ClientTestedAs.Individual"/>
									<MiningField name="EntryPoint.VCT"/>
									<MiningField name="EntryPoint.OPD"/>
									<MiningField name="EntryPoint.MTC"/>
									<MiningField name="EntryPoint.IPD"/>
									<MiningField name="TestingStrategy.VCT"/>
									<MiningField name="TestingStrategy.MOBILE"/>
									<MiningField name="TestingStrategy.HP"/>
									<MiningField name="TBScreening.No.Presumed.TB"/>
									<MiningField name="ClientSelfTested.No"/>
								</MiningSchema>
								<Node score="-0.006025115">
									<True/>
									<Node score="0.34427062">
										<SimplePredicate field="TestingStrategy.MOBILE" operator="greaterOrEqual" value="0.5"/>
										<Node score="-0.22405834">
											<SimplePredicate field="MonthsSinceLastTest" operator="greaterOrEqual" value="12.5"/>
											<Node score="-0.2616037">
												<SimplePredicate field="MonthsSinceLastTest" operator="lessThan" value="21.0"/>
												<Node score="-0.16764188">
													<SimplePredicate field="KeyPopulationType.GP" operator="greaterOrEqual" value="0.5"/>
													<Node score="-0.27042067">
														<SimplePredicate field="Gender.Male" operator="greaterOrEqual" value="0.5"/>
														<Node score="0.11927612">
															<SimplePredicate field="AgeAtTest" operator="greaterOrEqual" value="33.5"/>
														</Node>
													</Node>
													<Node score="0.3512149">
														<SimplePredicate field="AgeAtTest" operator="greaterOrEqual" value="19.5"/>
													</Node>
												</Node>
											</Node>
										</Node>
										<Node score="-0.16961643">
											<SimplePredicate field="TBScreening.No.Presumed.TB" operator="greaterOrEqual" value="0.5"/>
											<Node score="-0.22115651">
												<SimplePredicate field="MaritalStatus.Minor" operator="lessThan" value="0.5"/>
												<Node score="-0.043156944">
													<SimplePredicate field="PatientDisabled.Not.Disabled" operator="greaterOrEqual" value="0.5"/>
													<Node score="0.2400647">
														<SimplePredicate field="MonthsSinceLastTest" operator="lessThan" value="1.5"/>
													</Node>
												</Node>
												<Node score="-0.024732841">
													<SimplePredicate field="AgeAtTest" operator="greaterOrEqual" value="41.5"/>
												</Node>
											</Node>
											<Node score="-0.23218296">
												<SimplePredicate field="ClientTestedAs.Individual" operator="greaterOrEqual" value="0.5"/>
												<Node score="-0.28113663">
													<SimplePredicate field="Gender.Male" operator="greaterOrEqual" value="0.5"/>
												</Node>
											</Node>
											<Node score="0.14121275">
												<SimplePredicate field="AgeAtTest" operator="greaterOrEqual" value="37.5"/>
											</Node>
										</Node>
										<Node score="-0.0102968775">
											<SimplePredicate field="MonthsSinceLastTest" operator="lessThan" value="8.5"/>
											<Node score="-0.2721597">
												<SimplePredicate field="AgeAtTest" operator="greaterOrEqual" value="23.5"/>
												<Node score="-0.044321556">
													<SimplePredicate field="MonthsSinceLastTest" operator="lessThan" value="3.5"/>
												</Node>
											</Node>
										</Node>
										<Node score="-0.21494424">
											<SimplePredicate field="Gender.Male" operator="greaterOrEqual" value="0.5"/>
											<Node score="0.15706822">
												<SimplePredicate field="AgeAtTest" operator="greaterOrEqual" value="40.5"/>
											</Node>
										</Node>
										<Node score="-0.07469846">
											<SimplePredicate field="AgeAtTest" operator="greaterOrEqual" value="38.0"/>
										</Node>
									</Node>
									<Node score="-0.017015388">
										<SimplePredicate field="EntryPoint.OPD" operator="greaterOrEqual" value="0.5"/>
										<Node score="-0.17053115">
											<SimplePredicate field="AgeAtTest" operator="greaterOrEqual" value="19.5"/>
											<Node score="0.028020753">
												<SimplePredicate field="MonthsSinceLastTest" operator="greaterOrEqual" value="11.5"/>
												<Node score="-0.07109893">
													<SimplePredicate field="TestingStrategy.VCT" operator="lessThan" value="2.000001"/>
													<Node score="0.164863">
														<SimplePredicate field="MaritalStatus.Married" operator="lessThan" value="0.5"/>
													</Node>
												</Node>
												<Node score="0.3361326">
													<SimplePredicate field="PatientDisabled.Not.Disabled" operator="greaterOrEqual" value="0.5"/>
												</Node>
											</Node>
											<Node score="-0.11936082">
												<SimplePredicate field="TBScreening.No.Presumed.TB" operator="lessThan" value="0.5"/>
												<Node score="0.089149185">
													<SimplePredicate field="ClientSelfTested.No" operator="greaterOrEqual" value="0.5"/>
												</Node>
											</Node>
											<Node score="-0.08643099">
												<SimplePredicate field="MonthsSinceLastTest" operator="lessThan" value="2.5"/>
											</Node>
										</Node>
										<Node score="-0.23024176">
											<SimplePredicate field="TestingStrategy.VCT" operator="lessThan" value="0.5"/>
											<Node score="-0.05776683">
												<SimplePredicate field="AgeAtTest" operator="greaterOrEqual" value="15.5"/>
												<Node score="-0.24943356">
													<SimplePredicate field="MonthsSinceLastTest" operator="lessThan" value="21.0"/>
												</Node>
											</Node>
											<Node score="0.6420878">
												<SimplePredicate field="AgeAtTest" operator="greaterOrEqual" value="11.5"/>
											</Node>
										</Node>
										<Node score="0.071464635">
											<SimplePredicate field="TBScreening.No.Presumed.TB" operator="lessThan" value="0.5"/>
											<Node score="-0.14671995">
												<SimplePredicate field="AgeAtTest" operator="greaterOrEqual" value="11.0"/>
											</Node>
										</Node>
										<Node score="-0.2652348">
											<SimplePredicate field="ClientTestedAs.Individual" operator="greaterOrEqual" value="0.5"/>
										</Node>
									</Node>
									<Node score="-0.2751111">
										<SimplePredicate field="TestingStrategy.HP" operator="greaterOrEqual" value="0.5"/>
										<Node score="0.32767686">
											<SimplePredicate field="MonthsSinceLastTest" operator="greaterOrEqual" value="15.5"/>
											<Node score="-0.062107485">
												<SimplePredicate field="EntryPoint.MTC" operator="lessThan" value="0.5"/>
											</Node>
										</Node>
										<Node score="-0.24369182">
											<SimplePredicate field="MaritalStatus.Married" operator="lessThan" value="0.5"/>
											<Node score="0.06335091">
												<SimplePredicate field="EntryPoint.IPD" operator="greaterOrEqual" value="0.5"/>
											</Node>
										</Node>
									</Node>
									<Node score="-0.07904298">
										<SimplePredicate field="EverTestedForHIV.Yes" operator="greaterOrEqual" value="0.5"/>
										<Node score="-0.041192837">
											<SimplePredicate field="AgeAtTest" operator="greaterOrEqual" value="20.5"/>
											<Node score="0.14217746">
												<SimplePredicate field="MaritalStatus.Divorced" operator="greaterOrEqual" value="0.5"/>
											</Node>
										</Node>
										<Node score="-0.24390836">
											<SimplePredicate field="Gender.Male" operator="greaterOrEqual" value="0.5"/>
										</Node>
									</Node>
									<Node score="0.045847837">
										<SimplePredicate field="EntryPoint.VCT" operator="greaterOrEqual" value="0.5"/>
										<Node score="0.31115782">
											<SimplePredicate field="AgeAtTest" operator="greaterOrEqual" value="25.5"/>
										</Node>
									</Node>
									<Node score="0.28027418">
										<SimplePredicate field="EntryPoint.MTC" operator="greaterOrEqual" value="0.5"/>
									</Node>
								</Node>
							</TreeModel>
						</Segment>
						<Segment id="12">
							<True/>
							<TreeModel functionName="regression" noTrueChildStrategy="returnLastPrediction" x-mathContext="float">
								<MiningSchema>
									<MiningField name="AgeAtTest"/>
									<MiningField name="MonthsSinceLastTest"/>
									<MiningField name="Gender.Male"/>
									<MiningField name="KeyPopulationType.GP"/>
									<MiningField name="MaritalStatus.Widowed"/>
									<MiningField name="MaritalStatus.Minor"/>
									<MiningField name="PatientDisabled.Not.Disabled"/>
									<MiningField name="ClientTestedAs.Individual"/>
									<MiningField name="EntryPoint.OPD"/>
									<MiningField name="EntryPoint.MOBILE"/>
									<MiningField name="EntryPoint.PEDS"/>
									<MiningField name="TestingStrategy.VCT"/>
									<MiningField name="TestingStrategy.MOBILE"/>
									<MiningField name="TBScreening.No.Presumed.TB"/>
									<MiningField name="ClientSelfTested.No"/>
								</MiningSchema>
								<Node score="-0.13325816">
									<True/>
									<Node score="-0.27658916">
										<SimplePredicate field="TestingStrategy.MOBILE" operator="greaterOrEqual" value="0.5"/>
										<Node score="-0.13703097">
											<SimplePredicate field="MonthsSinceLastTest" operator="lessThan" value="12.5"/>
											<Node score="-0.042445645">
												<SimplePredicate field="MaritalStatus.Minor" operator="lessThan" value="0.5"/>
												<Node score="-0.18737605">
													<SimplePredicate field="PatientDisabled.Not.Disabled" operator="greaterOrEqual" value="0.5"/>
													<Node score="0.012241797">
														<SimplePredicate field="ClientSelfTested.No" operator="greaterOrEqual" value="0.5"/>
														<Node score="0.18805264">
															<SimplePredicate field="KeyPopulationType.GP" operator="greaterOrEqual" value="0.5"/>
														</Node>
													</Node>
												</Node>
												<Node score="-0.24773763">
